26516 200
， -0.020006 -0.659561 -0.024428 -0.172604 0.548476 0.449322 -0.222185 0.507419 0.501207 -0.255027 -0.072769 -0.121646 0.224014 0.249832 0.072086 0.168215 0.257200 0.442295 0.445674 -1.146229 0.412964 0.651197 0.145732 0.158471 0.146257 -0.428267 -0.433227 0.110934 0.128742 -0.160305 -0.419049 -0.712648 -0.438939 -0.322431 0.048067 0.146605 -0.181930 0.037401 -0.242890 0.036193 -0.350150 0.107943 -0.695845 -0.507970 -0.563965 -0.022032 -0.862232 0.522284 -0.020708 0.084087 -0.210424 -0.471545 -0.269963 0.123648 0.217419 -0.435287 0.033942 -0.723047 -0.122389 0.104794 -0.290905 0.163772 0.023195 0.083138 -0.392020 -0.044073 0.273280 -0.006351 1.194365 -0.513617 -0.570058 0.008349 0.002795 0.239427 -0.571516 -0.252263 -0.276725 -0.232734 0.061352 0.069706 0.432670 0.410910 -0.013921 0.072703 0.443263 -0.419662 -0.130832 0.383912 -0.313562 -0.429074 0.159932 0.338644 0.328121 -0.042082 0.338981 0.194302 0.385944 0.091857 -0.051486 0.070230 0.080851 0.526370 0.268126 -0.510949 -0.280542 -0.249185 -0.194052 0.200974 -0.213372 0.435921 -0.057279 0.066064 -0.202841 0.173985 -0.667130 -0.263657 -0.260399 -0.053043 -0.487214 0.282251 -0.745709 -0.346693 -0.237521 0.269233 -0.598913 -0.315633 -0.444122 -0.041592 0.298637 -0.165238 0.235822 0.834336 0.195126 -0.205764 0.544616 -0.008456 -0.219736 0.400919 0.297190 -0.186876 -0.147390 0.844028 0.071355 0.213998 -0.266526 0.183058 -0.222379 -0.202186 0.267038 0.490322 -0.864774 -0.050170 0.070472 0.359134 -0.804391 -0.137822 0.334553 -0.034850 -0.169988 -0.267136 -0.359317 0.504705 -0.231366 -0.523872 -0.025475 0.375592 -0.030655 0.202211 -0.386537 -0.349553 -0.359432 -0.645036 0.212322 0.456499 -0.412809 -0.259894 -0.111935 -0.376095 -0.403465 0.176723 0.408102 0.599452 0.415547 0.308279 -0.451400 0.413424 -0.105777 -0.183411 0.245049 -0.463039 -0.157515 -0.512966 -0.190132 -0.266987 0.199418 -0.115923 0.323779 0.148402 -0.405760 0.079877
的 -0.211706 -0.864510 0.185654 0.290593 0.879845 0.643201 -0.181957 1.196618 0.578924 0.139349 -0.435353 -0.303499 0.738082 0.800077 0.689774 -0.524307 0.012811 0.065515 1.174116 -0.796609 1.220617 0.538328 -0.462793 0.351141 0.213704 0.650389 -0.789391 0.262857 -0.046592 0.102062 -0.588743 -0.864445 -0.251528 0.766182 -0.380750 0.553054 -1.048050 -0.079409 0.383099 0.596659 0.665426 0.104378 -0.630919 -0.060011 -0.680773 -0.217433 -0.709650 0.196664 -0.099081 -0.083533 -0.212058 0.303280 -0.594899 0.159945 0.021694 -0.264565 0.236951 -0.572019 1.154978 -0.045927 0.088559 -0.270468 0.026056 0.157121 -0.116332 0.012275 0.116200 0.440417 0.143758 -0.653282 -0.265601 0.247729 -0.559337 0.304604 -0.463648 -0.405850 -0.804610 0.588873 0.168781 -0.403425 0.603756 0.855052 0.738679 -0.142248 0.227595 -0.064845 0.003880 0.288119 0.615940 -0.693253 0.351458 0.048811 0.746026 0.687766 0.304636 0.189849 0.690710 0.497324 -0.439969 -0.806734 0.381533 0.826657 0.751441 -0.584991 -0.257140 0.077302 -0.259594 0.173811 -1.039640 0.773368 -0.151635 0.131605 -0.351241 -0.524457 -0.399342 -1.288731 0.546021 0.209071 -0.051370 -0.176078 -1.862377 -0.380984 0.147858 0.918904 -0.402224 -0.228770 -0.172792 -0.187152 -0.337329 -0.854476 -0.082518 0.945382 -0.378111 -0.371880 0.952018 0.049919 -0.050953 0.874786 0.500350 0.538494 0.090920 0.640827 -0.295222 0.047896 0.420640 -0.645320 0.960297 0.084221 0.003017 1.142384 -0.503913 0.910345 -0.222926 -0.262106 0.230394 0.149045 0.213978 0.490833 -0.049988 -0.482084 -0.451396 1.208094 -0.071625 -0.779548 -0.139189 0.664273 -0.752366 0.785407 -0.842155 0.627634 -0.631519 -0.733073 0.145974 -0.276012 0.837703 -0.887740 -0.797091 -0.046108 -0.567813 -0.555427 0.256790 1.054138 0.736612 0.590083 -0.474864 0.864767 -0.017917 0.225375 0.524537 -0.707279 -0.255395 -0.381667 -0.062268 0.400673 0.578463 -0.288748 0.772621 0.421789 0.223334 0.292126
。 -0.388728 -0.173065 0.207963 0.018331 0.466029 0.256779 0.071849 0.504079 0.901778 0.148390 -0.077263 0.029216 0.559226 0.371306 -0.099984 -0.456564 -0.126374 0.715249 0.547210 -1.010342 0.867892 0.469486 0.162923 0.241698 0.122059 -0.198037 -0.445181 0.344135 0.604672 0.131030 -0.570697 -0.412617 -0.295548 0.248852 0.009030 -0.148662 0.053520 -0.411678 0.036805 -0.365078 -0.450240 0.064019 -0.562615 -0.079112 -0.354527 -0.394725 -0.678564 0.422793 0.091061 -0.096553 -0.213348 -0.457902 -0.414539 0.591443 -0.044444 0.164527 0.220196 -0.137902 0.324962 0.178057 -0.432809 -0.251632 -0.030338 -0.383035 -0.869552 0.243273 -0.301474 -0.069434 0.771054 -0.231821 -0.282306 -0.261869 0.013022 -0.266696 -0.637477 -0.055804 0.273223 0.116066 0.123264 -0.289754 0.460610 0.328444 0.114235 0.098896 -0.122917 -0.240407 0.037860 0.247412 -0.395754 -0.377804 0.326636 0.304765 0.201996 0.236884 0.247430 0.021677 0.249790 -0.126614 0.096539 -0.052465 0.403888 0.500184 -0.129229 -0.234378 -0.059238 -0.034791 -0.123781 0.261071 -0.317270 0.032683 -0.088184 0.092892 0.399896 -0.200060 -0.437073 0.118653 0.388868 -0.056521 -0.926260 0.472148 -0.926306 -0.297987 -0.308718 0.303386 -0.318968 0.522484 -0.099959 0.391554 0.091103 -0.386759 0.787396 0.609578 -0.258160 0.129884 0.536162 0.490727 0.337731 0.302442 0.345747 -0.120727 -0.266588 0.959073 0.162042 0.333551 -0.126611 0.324840 0.474220 0.037705 -0.010640 0.506076 -0.359565 -0.167397 -0.147572 0.455210 -0.571991 0.334354 0.032140 0.159649 0.271738 0.055077 -0.048001 0.277504 -0.715334 -0.565995 -0.297664 0.412410 0.436604 0.123069 -0.044974 -0.324392 -0.539445 -0.418872 0.545477 0.445879 -0.151139 0.060209 -0.299790 -0.285647 0.008064 0.010171 0.771159 0.468571 0.461711 0.267560 -0.412588 0.015606 0.079966 -0.088965 0.244057 0.436555 -0.265076 -0.484753 -0.238395 -0.027484 -0.057852 -0.102549 0.407819 0.242941 0.217692 0.632075
、 1.341305 -1.391698 0.393760 0.219469 0.559895 -1.017256 0.474129 0.625026 0.052858 0.194537 -2.480093 0.867731 -0.803865 -1.654756 0.660327 1.176973 0.871933 -0.406009 0.175037 0.566751 -0.655346 -0.473562 0.435831 1.196907 0.270390 -0.564764 -0.238050 0.691462 -0.449046 -1.217761 -0.414463 -0.535124 0.689428 0.401636 0.752469 -0.561240 0.196161 0.131489 -1.425465 0.956386 0.941899 0.314678 -0.688783 -0.050806 -1.286589 0.117348 0.680538 -0.428510 0.313282 1.039755 0.525150 -1.319185 -0.418444 -0.206217 -0.568388 -0.877240 0.207583 -0.248320 -1.031634 -0.552762 1.075127 0.716009 -0.818966 0.464372 -0.488697 -0.619420 -1.159610 -1.148498 0.965982 1.163223 -0.954880 -0.118565 -0.073792 -0.055895 0.159323 -0.596450 -0.725635 0.172912 0.474198 0.607906 -0.405506 -0.588865 1.205339 -0.780322 1.008002 1.475853 -2.055475 -0.916020 0.362167 0.953704 0.638989 0.924640 -1.843449 -0.350581 0.171126 -1.632199 0.828195 -0.658381 -0.603480 1.529218 0.192691 0.595112 -0.356171 -0.000727 1.173239 0.881237 -0.427658 -1.249686 -0.024169 -0.401709 -1.147983 0.831392 1.167466 -0.520394 1.845937 0.387322 -0.349644 0.380794 -0.138166 -0.753473 0.631622 -0.515280 1.461835 0.260344 -0.192352 -0.025614 0.021197 -1.441686 -0.796839 1.881433 -1.842643 -0.692247 0.322962 0.491435 0.004589 -0.266462 0.011411 -0.226206 -0.050537 0.141729 -1.356383 -0.345948 0.121333 -0.108673 0.443115 1.490739 -1.364254 0.458365 -2.870407 -1.270819 -0.858483 0.913826 -0.340180 -1.822432 0.372012 -0.615239 -0.569227 0.721090 -1.454010 -1.767957 0.374142 1.361881 0.858196 0.472020 -1.005474 -0.178397 -0.286869 -0.176076 -1.527304 -0.456788 0.173946 0.311897 -0.740351 -0.248570 -0.835010 -0.293486 -0.004985 0.770813 -0.881564 -0.458488 0.188342 -0.211654 -0.114293 -0.885009 -0.022299 -0.948000 0.111231 1.440620 -0.093799 0.111653 -0.431969 0.819339 -2.016070 0.002818 0.570911 -0.359018 0.751453 -1.750118 -0.608031 0.497936
“ -1.060199 -0.841452 0.418712 -0.531192 0.253000 -0.368649 -0.195703 -0.984742 1.397424 0.461125 -0.472910 -1.298451 -0.095995 0.591324 0.828325 -1.065062 0.730347 -1.175154 0.987045 -0.870238 0.386860 0.998261 -1.209180 -0.227270 -2.072426 0.056603 -0.626162 0.153572 0.269618 0.655402 -0.450243 0.403845 -1.198017 0.818592 0.417605 0.001217 0.032389 -0.839619 0.482634 -0.192663 -0.039786 0.415359 0.696088 -0.704412 0.359682 -0.964396 -1.279503 0.273305 0.032287 0.912784 -0.122770 -0.358200 -0.524388 -0.348923 -0.421709 0.609498 -0.060052 0.997312 1.000779 0.592546 -0.756119 1.156314 -0.041824 -0.566750 0.216123 0.430204 -0.072520 -0.170929 -0.112413 -0.756876 -0.598980 -1.100379 -0.982510 -0.295910 1.096106 0.153158 -1.203801 0.720246 -0.238610 -0.507774 -0.242192 1.350594 0.398020 0.638859 0.494882 0.853294 -0.304824 -1.158498 0.815241 -1.107801 -0.735280 -0.470722 0.141710 0.172640 0.054827 1.137118 0.278024 0.385920 -0.266972 0.023594 0.125164 0.589926 -0.343872 0.338817 -0.095228 -0.893887 0.219033 0.625725 0.168827 0.557154 -0.884490 -1.311422 0.425878 0.304207 -0.443648 0.081414 0.279110 -0.258848 -0.342305 0.897876 -0.217338 1.269660 0.350931 0.035915 -0.536348 0.076314 -0.560262 0.416806 0.645698 -0.686064 0.530768 -0.794615 0.122978 -0.496350 0.356115 -0.226429 -0.151130 0.862050 0.030245 1.357233 0.967169 0.535430 -0.334076 0.201625 -0.665325 -0.611500 -0.111866 0.848460 -1.171873 -0.397523 -0.271719 -0.209888 0.267120 -0.468430 0.247482 0.705059 0.594080 0.154419 0.105478 1.020396 0.417240 0.493367 -0.098079 -0.286638 -0.303695 1.715651 -0.553782 -0.482226 0.730618 0.374245 0.654612 0.393290 0.508922 0.059295 0.794362 0.904267 0.109330 -0.320416 -0.084559 -1.911215 -0.380231 0.690137 -0.428506 0.523841 1.189374 -0.013686 1.500951 0.539663 -0.677395 -0.422200 -0.298223 -0.206788 1.017440 1.289852 0.447761 -0.798748 0.377455 0.005788 -0.007504 0.210040
” -0.471770 -1.098806 -0.141516 -0.081453 -0.232572 -0.381822 0.616590 -0.163712 1.876124 0.596553 -0.351634 -0.677924 0.139065 -0.053118 0.657605 -0.789111 0.383591 -0.695325 0.548704 -1.133106 1.059184 0.696000 -0.792295 -0.256202 -1.383290 -0.276361 -0.535559 0.161810 -0.135957 1.166857 -0.483064 0.259362 -0.421304 0.722489 0.486954 -0.239093 0.444595 -0.568733 0.497320 -0.594607 0.064682 -0.440526 0.533851 -0.325921 0.716740 -0.321407 -1.649573 0.181269 0.030934 0.074910 0.064437 -0.312270 -0.707889 -0.618088 -0.174328 0.490148 0.155140 0.764136 0.988282 0.420233 -0.185557 0.716884 -0.390943 -0.728209 0.196050 0.505819 -0.019017 -0.210567 -0.345121 -0.513153 -0.484570 -0.972319 -1.034488 -0.421120 0.769517 0.103045 -0.949115 0.830699 0.616793 -0.633186 0.094028 0.996055 -0.229954 0.732046 0.153950 0.883957 -1.064514 -0.760034 0.102437 -1.268951 -0.371049 0.019211 -0.251000 -0.094389 0.122124 1.123876 -0.096359 0.142376 -0.192121 -0.116747 0.358552 0.756019 -0.002013 0.412102 -0.139343 -1.111893 -0.396962 0.742846 0.787558 0.564508 -0.296101 -0.833439 1.022421 0.653329 -0.349937 0.510326 0.396850 -0.304488 -0.327608 0.837583 -0.234342 1.333359 0.888207 0.048580 -1.046591 0.267595 -0.900097 0.416221 0.221944 -0.815579 0.351233 -0.969352 0.007015 -0.109953 0.415796 0.268581 0.137877 0.505385 -0.296042 1.654063 0.568320 0.658789 -0.473098 0.157056 -0.225195 -0.019603 -0.602738 0.655546 -0.368702 0.260608 -0.519427 -0.517140 -0.333571 -0.462703 -0.047003 0.662116 0.184826 1.177217 0.184093 0.641577 0.409254 0.198983 -0.353865 -0.697227 -0.636088 1.226728 -1.052368 -0.901777 0.434707 0.436637 0.645459 0.525253 0.402532 0.004954 0.990311 1.249945 0.054977 -0.429112 -0.695026 -2.283492 -0.578209 0.531099 -0.093781 0.415085 0.753191 -0.633072 1.040735 0.190433 -0.377352 -0.276073 -0.984999 -0.508732 0.482801 1.114136 0.090326 -0.884891 0.342183 -0.280090 -0.083981 0.307749
在 -0.643763 0.379627 0.824789 -0.712729 0.034924 0.847133 -0.622860 -0.344555 -0.497618 -0.326643 0.797995 0.419214 0.988321 -0.226502 -0.467311 -0.012066 -0.030670 -0.368558 -0.304930 -1.422338 0.813088 1.448887 -0.587915 0.662262 0.441942 1.382660 -0.333922 1.600939 0.176860 -0.033198 -0.614177 -0.798817 0.607979 -0.814372 1.120975 0.029649 0.005619 -0.227724 0.366832 -0.496072 1.267282 -0.380707 -0.212709 -0.610376 -0.506692 -0.382055 -0.057997 0.000163 0.080465 -0.394515 -0.390807 -1.752941 0.384396 1.175465 -0.590808 -0.851083 -0.320707 0.352598 0.834152 0.290582 -0.676609 -0.255574 0.424234 0.006975 -0.282159 0.671881 0.772649 -0.193040 0.500945 -0.068359 -0.298405 1.079671 0.278499 -0.077154 -0.071758 -1.084751 -0.303153 0.106398 0.203445 0.611074 0.209390 0.700713 0.342934 -0.110923 0.567547 -0.689151 0.404774 -0.193342 -0.845351 0.141372 -0.223858 0.503169 0.426402 0.338463 0.026293 0.163164 0.173509 -0.228483 -0.063931 0.717280 -0.797868 0.979440 0.752649 -0.253084 -0.848891 0.620648 -0.573610 -0.573057 -1.026471 0.815915 0.291469 1.107154 -0.143362 -0.194250 -1.138196 0.250228 -0.010205 -0.492611 -0.069214 0.719261 -1.433864 -1.178030 -0.241835 -0.432554 -1.101349 -0.629533 -0.377795 0.308595 0.061171 0.041551 0.867632 1.183388 0.125663 1.037498 -0.045871 0.629394 0.311080 0.692454 0.650939 0.141996 0.587895 1.720226 -1.572952 -0.373430 0.670441 -0.946264 0.087252 0.254599 0.092827 1.076699 -1.055391 -0.828600 0.649081 0.409625 -0.925740 -0.553052 -0.665308 -0.317120 1.152787 -0.468110 0.171469 -0.426268 0.303376 -0.258574 -0.394698 0.497498 -0.047578 0.959821 0.160932 0.590490 0.305330 -0.038455 0.314941 -0.780148 0.098562 -0.567762 0.424967 -0.580070 -0.973204 -0.766196 -0.396319 0.426513 1.329343 0.393859 0.412570 -0.023748 0.228658 0.497914 -0.028008 -0.728184 -0.516787 -0.645648 0.811648 -0.459882 -0.694743 -0.762714 0.199100 0.118419 0.835012 0.387279
了 0.092379 -0.359112 -0.822940 -0.338216 -0.362017 0.661541 -1.264842 0.470041 -1.290709 -1.079183 -1.171043 -1.086358 -0.605087 -0.030013 0.980989 -0.902483 -0.086669 -0.131067 0.056408 -2.308055 2.191881 1.176009 0.938531 1.536345 -0.509483 -0.036531 -0.066961 -0.296659 -0.020979 0.460742 -0.102432 -0.693350 -0.257671 0.484633 -0.959531 -0.210207 -0.422715 0.718256 0.466362 0.393456 0.149019 0.291305 0.536174 -0.808039 -0.985523 0.006173 -0.377653 0.156170 -0.591168 -0.237582 -0.625380 -0.947199 1.004171 -0.882710 -0.757450 -0.431651 0.956492 -0.091272 -0.477215 0.869531 0.743105 0.571474 -0.377321 0.260922 -0.289006 0.542940 -0.262484 -0.124209 1.077695 -0.621409 -0.655412 0.993655 0.553009 0.535822 -0.595644 -0.159020 -0.432121 0.606804 -0.664563 -0.919734 0.046883 1.149214 0.208911 -0.108080 0.241955 0.168429 0.057035 0.236203 0.018134 -0.051946 0.291653 0.018017 1.214730 0.246856 0.284626 1.922135 0.413889 0.640923 1.351959 0.615093 0.937174 0.425804 0.453322 -1.436851 -1.764586 -0.659112 0.380206 1.375503 -0.669115 0.198905 -0.620151 0.012658 -0.909357 -0.070897 -1.213480 -0.026633 -0.604608 0.605866 -0.778500 -0.109014 -1.169871 -0.200374 -1.110518 0.586979 -1.924320 0.058386 -1.027600 -0.249629 0.651163 -0.434831 -0.243794 0.491937 -0.994261 0.252456 1.206749 0.445545 0.705720 0.283936 0.542262 -0.110732 -0.503976 1.455144 -0.501461 0.409390 0.303752 -0.986339 0.726704 0.519659 0.568196 1.540361 -1.068450 -0.100289 0.360986 0.754042 0.042049 -0.374709 1.080578 -0.091325 -0.237905 -0.066630 -0.245694 -0.033561 -0.672013 -0.744050 -0.167079 0.567905 -0.624269 0.730964 -1.221963 0.286215 -0.409379 -0.009971 1.657027 -0.098981 0.744048 0.135378 0.093353 -0.044438 0.617860 -0.498222 -0.052393 1.595100 0.958517 0.874821 1.152267 0.376270 -0.210002 -1.244781 0.752584 -0.616933 0.002325 -0.445414 1.280851 -1.100286 0.763613 -0.079640 -0.242912 0.503809 -0.477635 0.556111
是 -0.351865 -0.364215 -0.305367 -0.659425 0.419494 0.450022 1.169234 1.543809 1.713457 0.999951 -0.470588 -0.271756 0.862616 0.296131 1.230937 -1.080105 -0.923362 -0.082393 1.836577 -0.654978 1.079987 0.199426 -1.087326 0.998763 0.325164 1.810314 -1.588666 -0.333169 0.586633 -0.054696 -0.576470 -0.714218 0.629617 1.208374 -0.477774 2.121913 -0.728577 -0.166173 1.287291 1.001714 0.287516 0.296248 0.071899 0.143392 0.723663 0.960733 -2.262690 -1.072085 0.063591 0.337068 -0.613275 -1.867496 -0.402531 0.150596 -0.560699 0.187058 0.641003 -0.383473 0.620583 0.128495 -0.571775 0.310533 0.455403 -0.456572 0.332884 -0.379963 -0.662794 0.491312 -0.919723 -1.297852 -0.372953 0.179730 -1.514866 1.432873 0.119433 0.696375 -1.332034 0.369130 -0.093357 -0.687604 0.079913 1.304685 1.159549 -0.526075 -0.164093 0.011369 -0.106949 0.029795 0.143533 -1.327028 1.101244 -0.741891 0.431876 1.808236 0.065070 -0.431125 -0.217415 1.743054 0.457563 -1.446771 0.903689 0.847794 0.517679 -0.730678 0.467628 -0.249932 -0.511525 0.495921 0.171684 0.860688 0.222536 -0.877058 -1.446417 -1.010240 -0.006861 0.413905 0.889536 -0.532131 -0.027721 0.026442 -1.900345 0.368298 -0.101911 0.518238 -0.456352 -0.470146 -1.105670 0.760378 1.053240 -1.409480 1.523835 1.320902 -1.679556 -0.238359 1.884277 1.236069 0.270686 0.294048 -0.140470 -1.365993 0.345653 0.959528 -0.052577 0.598832 -0.444237 0.329557 1.364312 -0.004858 -0.647618 2.269006 -1.228102 1.187072 -0.063492 -0.046985 -0.872428 -0.264469 0.007930 1.285333 -0.545760 0.397935 -1.194497 1.351912 -1.045795 -1.289188 -0.570319 -0.076580 -0.006139 -0.396490 0.173933 0.430700 0.322295 -0.793636 -0.274867 0.203128 0.557094 -0.462821 -0.023509 -0.950284 -0.916577 -0.086470 -1.524469 0.904362 0.859752 1.297298 -0.810251 0.205318 0.859376 1.654402 0.922233 -0.444128 0.281562 -0.628215 -0.053289 0.625995 -0.499399 -0.019396 0.235075 0.839985 0.755570 0.041657
和 0.822762 -0.976805 -0.036589 -0.512654 1.692790 -0.119207 0.218753 1.285827 0.257903 -0.129499 -1.170593 0.338974 0.602721 -0.500221 1.033475 -0.418878 0.549186 -0.628953 0.814326 -0.444625 -0.390581 -0.158606 -0.102424 1.357961 0.100607 1.068873 -1.097556 -0.379249 -0.984588 -0.966888 -1.397270 -1.228468 -0.487943 -0.194358 0.910860 -0.019354 -0.143707 0.147398 -0.828573 1.031170 1.295848 0.596839 -1.317784 0.675275 -1.749293 -0.012014 -0.407685 0.303405 -0.723559 1.283522 -0.017028 -0.696300 -0.689943 -0.934219 -0.333551 -0.066943 0.574348 -0.754306 0.166520 -0.718168 -0.387045 -0.203733 -0.249202 0.791988 -0.835145 -0.791525 -0.509271 -0.822871 0.771294 -0.247594 -0.806559 0.037794 0.553241 0.625559 -0.990066 -0.743872 -1.283793 0.956637 0.327467 0.230191 0.852449 -0.174462 0.453306 0.111938 0.996859 0.145728 -0.860870 -0.563388 0.087344 0.211500 0.600979 0.603502 -0.316898 0.317830 -0.314468 -0.938313 0.268272 -0.997051 -1.526386 0.370139 0.265878 0.793393 0.502393 -0.295623 0.145697 0.563746 0.059537 -0.304330 -0.311928 0.371568 -0.956039 0.795727 0.278302 -0.556910 -0.002860 -0.327805 0.564709 0.842149 0.079398 -0.849154 -0.995103 -0.367760 -0.134848 0.632541 0.169163 -0.028439 0.334898 -1.035773 -0.608453 -0.315520 -0.862104 0.859604 -0.276500 -0.942910 0.570569 -0.882960 0.216537 0.650586 -0.205571 0.763411 -0.837028 0.160675 0.442677 -0.353431 0.535479 0.724454 -0.090936 -0.062953 -0.839906 -0.009738 -1.235629 1.311327 -0.803376 -0.432081 0.267659 0.393455 0.478063 0.761724 0.364475 -1.186448 -0.336161 0.772185 1.144890 -0.168403 -0.202667 0.290343 -0.066798 0.194017 -1.096079 -0.276222 -0.202782 -0.239059 -0.137467 -0.148658 -0.506653 -1.412746 -0.147330 -0.053514 -0.679865 0.431794 0.402030 0.098569 0.694322 -0.278498 -1.206882 -0.587585 0.062333 0.534352 0.053095 0.527684 -0.898633 0.375780 -0.645204 0.854819 0.497495 -1.170988 0.593596 -0.299835 0.768777 0.936172
年 -0.862186 1.312023 0.248267 0.388539 0.569902 0.507793 0.725518 -0.247694 -0.086594 0.997478 1.403721 1.733331 -0.118149 -0.418890 0.435295 -0.447792 -0.592775 -0.120565 -2.042558 -2.782520 -0.709839 0.089354 3.046271 -1.719705 0.813890 -1.977846 2.424165 1.364125 0.784718 0.574225 2.383943 -0.312534 -0.773146 0.446319 -0.583230 -0.239913 -1.998322 0.197477 1.753259 -0.293439 -0.642426 0.350723 -0.734947 0.341797 -0.201028 -0.301925 1.003135 -0.614106 -0.132677 -1.290680 1.555871 0.642257 0.850696 1.341059 0.795558 -0.896415 1.296655 0.554959 -0.594591 -1.670500 0.614143 -2.087505 0.570645 -1.314729 0.270309 1.419329 1.224662 -1.187370 1.898302 0.570050 0.330616 0.774629 0.267687 1.287492 -0.791887 -1.656494 -1.106193 -0.713311 -0.641927 -0.196165 -0.745885 0.299021 -0.118352 -1.356199 -2.026528 0.974111 -0.868610 1.107056 -0.041973 -0.370915 0.211687 1.252796 -1.893869 -2.658264 1.730840 0.443032 -1.038281 -1.116476 0.580517 0.114696 -0.509493 0.662603 -0.820824 -1.256929 0.818276 -0.465677 0.362681 -1.233058 -0.725651 -0.721484 1.493094 0.307758 -1.817136 1.629871 1.232241 1.623388 0.596569 -3.547627 -2.712289 0.581274 1.222759 -1.601044 -1.210141 -0.754044 -1.894616 1.251116 0.456813 1.153907 0.434039 -0.093573 2.377823 1.168003 -0.953456 0.064788 -0.824152 1.951833 0.396619 -2.419307 -1.817068 -1.877321 -2.489502 -1.486810 0.067130 -0.556080 -1.931181 2.306931 -1.015200 0.189252 -0.367119 0.553240 -0.691639 0.476853 -0.131531 2.461882 -1.537584 1.335215 -1.672439 0.554927 -0.119244 0.924921 -0.204215 -0.190189 -1.030463 0.987310 -1.367646 0.157188 1.071996 0.843651 1.145451 0.179024 1.282149 0.723790 2.464056 1.742470 -0.791810 0.896728 -0.535018 0.441834 -0.530148 0.432869 0.535219 -0.140111 -1.174603 -0.473983 -1.304816 -2.059940 2.229303 0.070028 0.894001 0.043439 -0.729976 -0.584423 1.238909 -0.699518 -0.140316 1.220166 -0.177385 1.079495 1.915506 -0.650737
日 -0.922710 2.135348 0.398176 0.467092 -0.894559 1.240099 1.358445 -0.930487 -0.361205 -0.345419 2.126419 -0.822945 -1.749195 -0.939506 -0.036302 0.270437 1.021933 2.048262 -1.100857 0.085868 2.069542 0.104334 -0.095355 -0.604771 1.178491 -1.077514 2.117059 1.047557 -0.463627 -0.655644 1.471050 -0.550728 2.420420 0.240243 2.123238 -2.629586 1.184506 1.109709 0.815738 -0.920837 -0.590626 0.052530 1.079555 0.235008 -0.552627 0.521867 1.420736 -0.750560 1.567536 -1.926069 2.870177 0.363444 -0.963276 -0.488142 0.426676 -1.736602 -0.206885 -0.102360 0.820119 0.105741 -0.088727 -1.183551 -0.431773 -0.449551 1.048222 0.645220 -0.839046 -2.457148 2.251170 2.334830 -0.066925 2.468701 1.455347 -2.132923 -0.631528 0.003889 1.613266 -0.601290 0.480100 0.904917 -1.093000 0.863553 0.130944 1.395771 -0.204548 -0.653396 1.445691 0.197979 -0.374330 -0.904508 0.119791 1.083625 -0.969431 -0.490301 -0.676368 0.065120 -1.030103 -2.399154 0.296984 0.840497 -0.280976 -0.077573 -0.314270 0.601324 -0.088969 1.467897 0.153405 0.756974 -1.075861 0.609566 2.358453 1.168793 1.332630 0.450297 -0.705819 3.194465 1.036939 -1.735459 -3.059137 1.541386 1.188147 0.260427 0.881360 -2.087630 -1.070028 -0.421220 1.849771 0.824049 0.515332 0.642447 0.910912 -2.037174 -0.058407 0.914684 -1.836618 0.249919 0.639608 -1.348903 -0.349381 -0.583143 0.383984 1.146778 -0.159933 1.276419 -1.406816 0.571744 -1.010244 -1.867582 -0.474880 -0.309149 0.736957 -0.414975 -0.066867 1.692627 -1.296867 -0.622333 0.873037 1.462513 1.157199 1.563129 2.632041 -2.956112 -1.576522 0.494449 0.734236 -0.858387 0.246585 2.036500 -0.097596 -0.553491 0.603479 1.169467 0.094431 1.871127 -0.507038 4.320614 2.314096 -0.369376 0.577344 1.075742 1.890591 -1.197889 -0.543093 0.406170 -0.898378 -0.044238 1.049656 -2.340746 -2.501896 0.191920 -0.285363 1.442674 -0.034068 -0.422963 -2.267889 3.294051 -2.261592 0.437317 -1.145086 -0.537952
： -0.309340 -0.023765 -0.287188 -0.282980 -1.301754 -0.200347 1.342446 0.108345 -0.091043 1.498011 1.583358 0.238164 -0.729230 -0.321128 1.114448 0.296108 -1.757422 -0.623628 1.260658 -1.024487 0.664895 0.850349 -0.072682 0.277694 -1.188285 -0.174674 -1.162830 0.714143 0.149076 0.684028 -0.935514 1.842388 3.448445 1.516017 -0.850182 0.383465 0.463531 -1.337607 1.147061 -2.256659 -0.682198 -1.815563 0.420592 1.480201 0.688686 0.718628 0.106274 1.360272 0.930826 -0.579641 -0.014113 -0.861617 0.690982 0.970425 -0.589860 1.131164 0.859475 1.013073 -0.184240 -2.291330 -0.440298 -0.086152 0.319865 -0.369496 -0.389906 -1.009799 -1.931774 0.634807 0.545470 0.673407 0.214170 -1.691469 0.143645 -0.994615 0.977243 -0.929138 -1.052730 -0.088854 0.948545 -0.676594 -2.043907 1.256427 -0.707556 1.393023 1.137606 0.947355 0.526934 -1.995598 0.912188 -1.052783 -0.827364 -0.291223 -1.036671 1.834699 -0.932926 -0.510746 0.225265 -0.405930 -0.526012 -2.258084 2.237817 0.413293 1.021205 -0.133132 2.192133 0.633444 1.157848 2.580645 0.341732 -2.039367 -0.881875 0.244398 1.609368 -1.423697 -1.122460 0.502438 0.868053 0.617810 -0.200611 0.616230 -1.183921 1.389384 -1.204551 -1.115668 -0.424814 -0.327881 0.706190 0.822886 0.158635 0.324190 -0.797177 -1.907982 -0.842418 1.016761 -0.310762 1.560994 1.881585 0.456275 -0.871486 -1.083241 -0.448505 0.164155 -0.922810 -1.283177 0.614886 1.208374 -0.233343 -0.048819 0.628641 -0.492453 0.498801 -0.247664 0.035277 1.702530 1.039859 -0.474568 -0.647477 -0.383762 -0.737231 0.365996 1.188786 -0.887457 -0.207063 0.919317 -1.650506 0.338671 1.084925 -0.627581 -0.117065 0.883320 -0.477534 0.285812 0.474879 -0.311996 1.048050 0.250443 -0.370603 -1.249447 1.074277 -0.731067 -1.339195 -0.370919 -0.434396 -0.558731 0.650377 -1.472232 0.244000 -1.829253 -1.313574 2.642775 -0.683763 -0.759199 -0.506075 -1.372309 -0.574695 2.153255 0.730170 0.721449 0.685314 1.546393
一 -1.163332 -0.065537 0.286727 -1.458443 -1.130264 -0.236840 0.244165 0.033850 0.777979 0.557808 0.040405 -1.180158 -0.574075 -0.371754 0.957873 -0.814672 0.053968 -0.184307 2.063601 0.069337 1.265317 0.969522 -0.604960 0.548138 -0.331862 -1.127491 -1.082933 1.045378 1.870836 0.153027 0.505023 0.005818 0.147893 2.233013 -2.928777 0.062253 0.704637 -0.311791 -0.863182 -0.809017 0.309643 -0.431718 2.130596 0.869823 -1.219622 -0.510196 -0.132092 -1.427180 0.931667 -0.406198 0.489487 0.287468 0.411896 0.665584 0.314241 0.081358 -1.462002 -0.182425 0.678485 -0.048195 0.557479 -0.224902 -0.795229 -0.553804 -0.701885 2.406063 0.237431 -1.588955 -1.703402 -0.703402 0.540504 -0.447651 0.130538 -0.681635 -0.558866 0.091884 0.638782 -0.821415 -1.149818 -0.242919 0.106010 1.543760 1.526925 0.238580 -0.335907 0.080727 0.444871 -0.268048 -0.061987 1.301647 -1.121994 -0.997330 0.912684 2.371346 1.932251 -0.132416 -0.220642 -0.220362 0.820551 0.180593 0.757067 0.507752 -1.462391 0.760531 -0.840407 -1.182593 0.270251 0.273963 0.287837 -0.663112 1.571902 1.873827 -0.200762 -0.517224 0.590625 0.415579 0.491985 0.412594 0.898718 -0.414106 -1.534697 1.592972 -0.686928 -0.253561 0.276534 0.932119 -0.815793 0.724164 1.477860 -1.088065 1.010194 -0.434062 0.563947 0.408426 1.467839 0.220352 0.659448 0.399731 0.453730 0.284127 -0.443278 2.174843 -0.981431 -0.670498 -0.354165 -1.301328 -0.169181 -0.724460 -0.182088 1.953434 -0.906964 -2.479060 0.893211 1.523824 -1.726530 0.207828 0.425848 0.457742 0.884323 -0.407282 0.823696 1.541394 0.488548 0.684941 -0.644950 0.237719 -0.558298 -0.506889 -0.359794 0.519165 1.500985 -0.549725 0.412338 0.469213 1.139253 -1.176052 -0.410648 -0.699025 -0.932821 -0.560452 -0.388986 -0.093265 1.505560 1.953777 1.604981 0.181779 -0.841144 -0.403905 -1.510591 -1.000470 0.179875 -1.376161 2.268315 -0.517095 0.498420 -1.749725 0.231568 1.929846 -0.394560 0.771176
中国 -0.894138 0.191535 1.213412 -0.994869 -0.016203 0.784336 0.031295 0.640899 0.733481 1.320508 0.738571 0.192593 1.980008 1.316428 2.311880 -0.384138 -0.584067 -0.119242 -1.750934 -1.497640 0.607314 3.025736 -0.506838 -0.149867 -1.997677 2.084570 -0.070720 0.149270 -1.271323 0.312069 0.208537 -1.488383 -0.263684 -1.098908 -0.124771 0.540123 -0.519947 -0.493926 2.071979 1.135934 2.505389 -0.795217 0.165497 -0.448439 -0.077704 0.532432 -0.083420 0.669841 0.423602 -0.279789 -0.523156 0.757465 -1.605232 0.878210 0.744239 -0.105647 0.535781 -1.254132 0.869458 0.076752 -1.116789 0.082472 -1.578215 -0.067405 -0.153545 -0.140102 -0.432198 -0.351201 -0.244865 0.909766 0.590874 0.899290 -0.984142 0.350561 -1.865183 -1.781646 -0.269026 0.230616 0.729607 -2.024068 2.027486 -0.629663 -0.813283 1.420967 0.141982 0.496058 1.498818 0.612020 0.817971 -0.880168 -1.107467 0.362892 0.963530 2.055625 -0.323256 0.652270 0.560044 -0.595424 1.273956 -0.824706 1.618879 0.659956 -0.056057 -0.752643 0.537520 -1.174380 0.654590 1.974146 -0.396747 0.808000 1.409966 -1.079198 0.079037 -0.216426 -0.680837 0.151110 0.912958 -1.270685 0.502246 0.952440 -0.920814 -1.795841 0.625777 -0.525311 0.156016 0.431376 0.412066 -0.688394 1.408406 -0.536664 0.605975 -0.718323 -0.054770 -0.926000 -0.223805 -1.076051 1.794643 0.472344 -0.823853 -1.242671 -1.347729 -1.856025 0.171081 0.052050 0.549281 0.020625 0.609530 0.659279 2.723220 0.055768 -0.418635 1.410832 -0.224908 -0.580466 0.094283 0.031950 -0.354231 2.235271 -0.280856 0.865165 0.056172 -0.134084 -0.918217 -1.732525 -0.858136 0.933207 0.310794 0.968083 -0.062185 -0.821719 -1.549796 0.160019 1.277261 -1.745326 2.742150 -0.508268 -0.185964 -1.057931 0.700101 -1.122680 -1.347484 -0.014596 0.668116 -1.219503 -0.903453 -0.838733 -1.164740 -1.110977 1.404664 -0.213158 -0.097745 0.101686 1.006073 2.305945 1.587259 -0.664554 0.670704 0.893862 1.154077 1.589163
对 -0.390940 0.674469 -0.266514 -0.551693 0.797204 -1.545165 1.706709 0.762488 1.052450 -1.315617 -0.839158 -1.626652 0.211035 -0.904527 0.782146 -1.227442 0.275054 0.898210 0.244512 -1.509443 -1.145796 0.273384 -1.397382 0.561400 -0.937334 0.616672 -1.414236 0.659843 -1.379899 -2.417907 -1.944734 -1.061499 -1.833672 0.314593 0.652057 -0.130194 -1.366761 -1.205291 0.155024 0.939964 1.558046 1.051126 -1.311763 0.682776 1.038897 0.710002 -0.964027 0.920956 0.739965 -0.189498 1.208226 -0.891914 -0.556303 -0.821290 -0.441697 0.742281 1.249684 -1.104998 0.653379 -0.242248 1.101986 1.824227 -0.316121 -0.166338 -0.290484 -0.016587 -0.202806 -0.645744 -1.071357 -1.353562 0.156047 0.252468 0.028546 -0.754086 0.657292 -1.313609 -0.222333 0.206025 0.883413 -0.550411 0.167518 0.120602 -0.058755 -0.292623 0.404868 -2.304533 0.064844 0.393188 0.899182 0.489908 0.558655 0.819697 0.140225 -0.120360 0.381277 0.097509 -0.229093 0.614532 -2.076003 -0.045120 1.134918 0.190458 2.032461 -0.334762 0.003228 0.434722 0.333895 -0.941906 -0.690933 -0.509989 -1.189143 -1.215785 -0.016304 -0.640376 -1.249995 -0.824380 0.088953 0.532152 0.534718 -2.251210 -0.724687 -0.452948 0.254657 -1.010976 1.027332 -0.083196 0.978560 -0.708885 0.269165 0.040737 -0.979463 1.484217 -0.420693 -0.817203 0.541125 -1.564220 0.262517 1.598733 1.054001 0.738078 -0.503891 0.763377 -0.193405 -0.302662 1.254334 0.197768 -0.011152 -0.373257 -1.312503 -0.218578 -2.050941 0.481582 -0.162790 -0.887484 -1.205983 -0.646144 0.869116 1.632118 -0.183791 -0.006991 -1.899186 0.197707 0.613902 -0.876486 -1.068388 0.877832 0.309100 0.213893 -1.243769 0.837320 -0.315115 -0.565110 -1.579843 0.147596 0.050896 -0.154347 0.784414 0.384448 -0.023032 -0.521436 1.783209 -0.261169 0.444003 0.633626 -0.822878 1.372665 0.315229 -0.760464 1.338946 -0.873629 0.198164 -0.925270 -0.403339 -0.765548 -0.906490 -1.168007 0.715975 -0.090913 0.747230 0.193914
有 -0.040161 -0.770429 -0.769932 0.054763 0.743052 -0.689527 -0.006785 0.879690 -0.145503 0.796463 -0.108287 -0.292709 -0.806498 0.808758 0.256869 0.133533 0.166970 0.922480 2.064380 0.012482 0.636772 1.514961 -1.089931 1.455240 0.085538 0.334980 -1.068518 -1.161066 -0.630031 -0.033863 -1.958307 0.079744 0.627356 0.122519 -0.843883 1.017719 -1.201422 -0.662243 0.032610 0.669265 0.224464 -0.056723 -0.769628 -1.160967 -0.796630 0.207904 -1.382014 0.057055 -0.170171 0.781450 -1.737865 -1.316221 -0.631056 1.280988 -0.157084 -0.330761 -0.994972 0.496321 1.112761 0.843315 0.250917 0.244441 1.317797 1.019640 -1.409168 0.104263 0.108352 1.130669 0.559153 0.208344 -0.479528 2.109077 0.099512 -1.544175 -0.962396 -0.144490 -1.097165 -0.634021 0.737382 -0.837596 -0.352547 0.177592 -0.102325 -1.637981 0.078245 0.055566 0.440337 -0.341887 -0.129488 0.462205 0.752944 -0.049110 -0.180123 2.777709 0.114994 -0.747283 -0.997572 0.713217 1.111219 -0.761037 0.116726 0.552543 0.957090 -1.258388 -0.081788 -0.589705 1.118870 0.396401 -0.864248 0.078810 1.214209 -0.336814 -0.618996 0.191024 0.161301 -0.184820 0.338030 0.000155 -0.424803 -0.001614 -0.508355 0.832995 0.002371 1.940813 0.683304 -0.584018 -0.722660 0.168469 0.566586 -0.615441 0.959555 1.116081 -0.730557 0.356193 0.002405 1.603483 -0.373387 0.814408 1.062593 0.418437 0.376071 -0.044303 -0.448918 1.137767 0.408303 0.384105 1.745976 -1.329300 0.912019 2.507837 -1.174516 -1.132198 1.830341 1.036467 0.743532 0.162374 0.252282 0.641789 1.145420 1.286412 0.534291 0.180397 -1.514740 -0.965586 -0.234784 0.234301 -0.470774 -0.525900 0.086770 -0.032508 -1.147068 -0.941409 -1.070829 0.452721 -0.775614 0.116903 0.368710 -0.199855 -0.324370 -0.272314 -1.137951 1.523509 0.893500 2.215501 -0.278947 0.639752 0.773773 0.468540 1.127434 -2.090431 -0.442102 -1.320824 -0.686643 0.846728 0.869105 0.026628 -0.337422 -0.097104 0.875113 -0.199864
也 -0.808122 -1.312542 -0.368241 1.303123 0.652927 0.077902 -1.071431 1.341423 0.459253 0.620766 -0.089956 -1.333233 0.915673 1.131557 0.332311 -0.246276 -0.026747 1.251422 1.565224 0.227220 0.751067 1.387498 0.253257 0.953286 0.043827 1.161079 -2.005070 0.175425 0.201107 -0.343102 -1.190061 -0.065082 -1.254314 1.187831 -0.372435 0.005772 -0.823329 -0.919213 0.273110 0.265346 -0.299587 0.364643 -1.558911 -0.892305 -0.540529 -0.873495 -1.665431 0.226170 -0.642308 0.044077 -0.732304 -0.254540 -1.500224 0.419050 0.082802 0.805481 0.851750 -0.224652 0.321210 0.503854 -1.092402 -0.465013 0.456463 0.556368 -1.035454 0.236767 0.639490 0.953159 -0.116834 -0.167955 -0.639884 0.327623 -0.475490 -0.483302 -0.224259 0.421096 -0.226734 -0.180832 -1.304170 -0.450346 0.103622 0.762169 0.335856 -0.094636 -0.337921 -0.094901 0.684499 0.582481 0.470208 0.200107 0.609584 0.588288 1.094176 0.931606 0.331143 1.026224 1.020356 -0.139301 -0.920377 -1.009080 -0.061838 -1.186605 0.678140 -0.686771 -1.154713 -0.094099 -0.981010 0.652901 -1.002113 0.493182 -0.592299 -1.043953 0.545139 -0.721835 0.003920 -1.617206 0.018628 -0.358651 0.144954 0.267433 -2.033370 -0.887814 -0.578172 1.097036 -0.035559 -0.771048 -0.253306 -1.136803 0.911644 -0.643290 0.282065 0.830744 0.296631 -0.515570 1.266075 0.142999 -0.864839 -0.402781 1.760684 -0.668155 -0.101385 0.922122 -0.680782 0.051697 0.586649 -0.305982 0.838461 0.688281 0.719810 0.583379 -0.396932 0.761867 -0.605898 0.249178 -0.695980 -0.366520 -0.179156 -0.198801 0.144262 0.211963 -0.892866 0.882538 -0.533869 -0.986451 0.561497 0.541353 -0.138798 1.186254 0.648582 -0.302432 -0.599482 -0.938083 -0.274506 0.128480 0.554411 0.022760 -0.761642 0.231936 -0.096664 -1.024593 0.110686 1.721391 2.211760 0.504053 -0.620823 0.667589 -0.483860 0.506473 0.766112 -0.155097 -0.357490 -0.751151 0.250002 0.963014 0.371843 -1.187480 0.046259 0.249543 0.697450 0.677115
疫情 -0.226542 -0.041624 1.423439 -1.398920 -0.146109 -0.745822 1.782593 1.507530 0.489458 -0.809300 -1.113946 -1.912139 1.681944 0.769562 -2.288675 0.409489 0.584498 -0.827766 -0.816509 0.852483 0.879270 -0.028154 -0.226345 0.403756 0.595359 1.964447 -1.088677 1.187972 -0.021372 0.603674 -2.131109 -1.752294 -1.006358 -2.269193 -0.211913 -0.669860 0.329802 -0.335446 0.931880 0.144392 1.003912 -1.318596 0.150403 -2.110389 -0.597665 0.862807 -0.890759 0.514571 0.893768 -1.687336 -0.571215 0.714683 0.708876 -0.266048 -0.859289 1.514579 -0.119535 -1.164937 -2.009127 0.944228 -2.191796 1.557229 -0.631469 1.594674 -0.764973 -0.582637 -0.170271 0.437407 1.200112 0.378828 0.421546 -0.804906 0.873795 2.295692 -0.375949 0.037619 1.737977 -1.227517 -0.206699 -0.104241 1.483454 -0.059763 1.086430 1.235536 -0.703524 -1.221962 -1.120577 -1.503190 -1.088683 -2.011761 0.718438 0.318571 -0.509452 2.149476 -1.113098 -0.812938 -0.556844 1.202694 0.150207 0.339860 -0.496596 2.626603 0.693204 -1.505104 0.643535 1.951540 0.353609 1.979538 -0.518022 0.346263 -1.070349 0.155412 1.483778 -0.286262 -0.719288 0.811072 -0.541721 0.124871 -0.129923 -0.092981 -1.586692 -1.910777 -0.004111 0.058052 -2.805973 0.933193 1.873421 0.105087 0.567288 -0.192358 -1.292389 1.282534 -0.407909 -0.248146 -0.539415 -0.667018 0.199584 -1.014354 1.141697 1.543218 -0.071367 2.554856 -1.547257 -1.692111 0.618297 0.026919 0.668901 -0.878405 3.530389 -1.790496 -0.625920 0.331139 -2.797364 -1.303614 -1.502440 -0.972392 -0.227403 0.639480 -2.590355 0.500877 -0.738842 -0.684419 0.939302 -1.552648 -0.297264 0.926831 1.023161 -0.971116 -2.576819 -0.625301 -1.379304 0.461011 -1.955459 -0.997634 1.092005 -0.425113 -0.182123 -1.609525 -1.241046 1.776427 1.080383 -0.083985 -0.798201 0.250085 -1.488135 0.305369 -1.009176 -3.150757 -1.504331 1.852296 0.707812 0.695968 0.327430 0.453183 1.378486 0.854782 -1.168800 0.932268 0.695508 0.016832
） -0.031781 3.125416 2.148874 0.956155 1.503816 0.942667 -0.207657 -1.089866 -1.918638 1.445471 0.078145 0.376971 -0.260703 -0.461074 1.071164 -0.540896 -0.433157 -1.106365 0.380788 -1.102580 -0.990533 -0.417680 0.367399 0.347250 0.244242 -1.404990 0.889295 0.355454 0.923776 0.232834 0.215437 0.441749 1.813145 0.080789 -1.674305 -0.953501 0.514457 -1.666756 -0.662675 -0.225761 -1.259487 0.458896 0.765416 1.175310 -1.185804 0.894237 2.847084 0.241724 1.389095 -1.536790 0.647180 1.957837 2.004985 -0.297019 -0.671206 -0.617918 -0.158498 1.183894 -0.097895 -1.076111 -0.195309 -1.449631 -0.671673 -0.703408 -0.127253 -1.365511 -1.822935 -1.426353 1.868455 1.211454 -1.210696 -0.315614 0.454790 -1.830540 0.809534 -0.318355 0.774772 0.562493 2.511846 0.191027 -1.210894 -1.301900 0.040202 -1.092670 0.042949 2.310793 0.999034 -0.334182 0.894323 0.001836 -0.545143 -0.542818 -0.882497 -0.008856 -0.547375 -1.647236 0.133293 -0.313952 -0.442650 -0.169788 0.705614 -0.449774 -0.899991 1.354574 2.320403 2.174064 0.486691 -0.915863 0.867056 -0.586620 0.796831 -0.481969 -0.044965 -2.107777 -0.602337 1.446036 1.388969 0.366228 -0.012319 -0.204886 0.129636 -0.617653 1.186344 -2.602539 1.253103 0.645813 1.102246 -1.828649 0.668701 -0.152144 -0.296287 -2.821303 -0.520738 1.843568 0.084728 0.618172 -0.938032 -1.915517 -2.146825 -1.486671 -0.884553 0.898952 1.093930 1.207200 -0.533683 0.827998 0.235772 0.443682 -1.127018 -0.260805 0.069832 -1.333673 -0.831361 -1.110645 1.990609 -0.600445 -1.557223 0.723824 -0.856428 2.474711 1.089965 -1.142411 -0.587913 0.687662 0.397517 0.131427 0.509873 0.044679 0.132083 0.223162 0.712883 -0.212629 0.153390 0.777158 -0.302516 0.802686 0.274910 -1.748846 1.634522 -0.902159 0.613299 -0.832784 0.317616 0.593302 -1.180190 -0.778137 1.148641 -0.858454 -1.730854 0.365309 -0.126412 -0.485210 -1.784496 -0.031934 -0.403026 -0.157104 -0.626108 -1.521021 1.067326 1.243046
（ 1.321380 0.994734 1.308538 -0.512616 -0.514623 0.835244 1.112320 -1.169437 -2.277911 1.944701 0.561682 -0.420417 -2.023165 -2.180790 1.582762 1.083482 -0.529194 -2.508482 -0.159842 0.717112 -1.224903 0.082422 0.717906 -0.549067 -0.081462 -0.897466 1.094296 0.315448 0.578060 0.323859 1.281934 1.359899 2.772322 0.107526 -1.078436 -1.046216 1.024683 -0.995437 0.428714 -2.490925 -2.116055 -1.885624 0.874151 0.078779 -1.147134 1.722779 1.817831 -0.331940 2.091522 -1.173098 -0.398335 0.730477 1.389143 0.278268 0.116975 0.673177 0.953175 0.597568 0.504955 -0.277951 -0.499289 -1.151257 -0.501645 -0.082207 0.723171 -0.221610 -1.549518 -1.554756 2.006654 1.694832 1.805042 0.781300 -0.719127 -1.132246 0.646050 -0.601574 -0.134147 -0.590478 1.950547 -0.040368 -0.473894 0.513113 -0.796752 -1.680183 -1.385196 2.284007 0.825558 -0.584696 -0.127473 -1.091088 -0.712818 2.120063 -1.328825 -0.131087 -0.818633 -1.176321 0.131270 -0.504313 -1.285192 0.904579 1.394947 -0.114951 0.511270 0.989166 2.982666 0.461671 -0.809674 -0.611114 0.202749 -0.149003 1.490487 -0.521771 0.591663 -1.734055 -0.935447 1.031072 1.209303 0.358645 -0.247265 0.649806 -1.104364 -0.362473 2.051769 -1.184263 1.136559 1.343243 1.776389 -0.172116 0.251658 0.941525 -1.024770 -0.673402 -0.836442 0.870055 0.677025 1.455098 -0.793029 -0.185783 -2.350161 0.138915 -0.937657 -0.879756 0.100852 -0.084384 0.247195 0.973817 -0.704981 -0.039993 -1.518506 0.833044 -0.201931 -1.938088 -1.496873 -1.134453 -0.346612 0.020767 -1.900461 0.352878 0.163122 -0.257890 1.522959 -0.642484 -0.325466 -0.162461 0.204011 0.616268 2.170898 -0.470481 -0.184616 0.507176 0.009034 0.866423 -0.373634 -0.816241 0.165938 0.038210 1.595436 -2.066846 1.987434 -0.927780 0.209231 -0.695303 0.408094 0.126645 -2.101137 -1.530563 -0.147060 -1.267567 -0.652347 -0.407067 0.208355 0.185390 -0.382039 0.260972 -0.242403 -0.240214 -1.014360 -1.877439 -0.032490 2.014357
等 0.362324 -0.771101 0.640594 -0.401358 1.253740 -0.015747 0.483288 1.328872 0.318289 -0.865923 -1.997194 0.743305 0.326516 -2.326813 0.080920 0.192061 1.836114 0.267269 0.862695 0.090289 -1.246223 0.358111 0.166705 1.309023 0.716856 1.380803 -0.732080 1.178510 -0.674917 -0.552287 -0.665181 -0.691184 0.179249 0.067384 -0.235132 -0.680442 0.701842 0.528114 -2.042819 -0.084764 1.439481 -0.060493 -1.457261 0.111205 -0.869236 0.764502 1.405492 0.835127 -0.366905 -0.733104 0.815796 -0.370113 -0.251686 -0.460326 -0.695961 -0.343263 0.263496 0.835691 0.971584 0.253022 -0.107473 -0.263938 -0.799991 -0.208623 -0.609811 0.628744 0.012040 -1.921126 1.391949 1.457199 0.186762 1.211850 0.538684 -1.087193 0.166161 -0.695856 -0.981104 0.282517 0.298552 0.227515 -1.446303 -0.079834 0.991500 -0.946957 0.845713 0.670135 -2.184665 -0.575056 -0.131388 2.448137 0.093869 0.244907 -0.921704 -0.081202 -0.279098 -1.233804 -0.565637 0.152113 -0.849372 1.353321 0.474121 0.260158 0.748456 0.566342 -0.118282 0.468628 0.008545 -1.340098 -0.446354 0.449109 -2.054845 1.494247 1.962291 -0.563213 2.250185 -0.558827 -0.522017 -0.018842 -0.145274 -0.006622 -0.223763 -1.231677 0.829715 -1.112791 1.088830 0.527554 -0.420904 -0.884144 -0.955427 1.070521 -2.281026 -0.864375 2.306560 0.012291 -0.983502 0.028947 0.380651 1.831484 -0.909643 -0.766907 -0.316733 0.067585 -0.407348 -0.352756 1.737287 0.761193 -2.118718 0.363348 -1.682806 -1.219623 -1.425626 1.991268 1.146228 -0.319121 0.338500 -0.278107 -0.082424 -0.710059 0.483531 -1.667387 1.180838 1.447848 1.314715 0.966436 -1.989477 -0.776820 -1.697198 -1.204481 -2.036787 -1.187200 -0.197700 0.739500 0.082670 -0.045450 -1.235693 -0.564155 1.191155 1.093021 -1.258083 0.108772 0.651897 0.086274 0.529640 -0.782404 -0.704917 -1.187274 -0.120430 1.973097 -0.662383 -0.228639 -0.578283 0.403932 -2.301171 0.184476 0.891382 -0.305083 0.613995 -1.622585 -0.777351 -0.255632
为 1.381150 1.333061 0.756083 1.068799 0.858073 1.785229 -0.116411 0.803159 -0.805745 -1.378154 -0.486663 -0.693613 0.361020 -0.922751 0.963695 -0.314175 0.527288 -1.572258 -0.740352 0.426249 0.073446 -0.663625 0.347129 -0.900123 1.219856 -0.536481 -0.013608 0.904006 -1.038041 -0.372115 1.239782 0.663648 0.639430 1.029853 1.468414 -1.852558 -1.407148 0.346112 0.470005 0.864548 0.470682 -0.430875 0.432661 1.144308 0.040123 0.309807 -0.096668 0.516323 0.628029 -0.614211 -1.570111 -1.817787 1.622649 -0.695639 -1.669912 0.254473 0.631919 -0.725930 0.047582 -1.053220 0.156061 -0.216702 -0.538033 0.293102 -1.462624 -1.374749 1.240860 -2.532052 0.764684 1.101299 -0.241608 -0.078411 -1.518413 0.619768 0.110492 0.925757 -0.872741 1.769301 0.710903 -0.106557 1.229582 0.341212 -0.248955 0.398361 0.926138 0.233805 -0.040378 1.181771 -0.358560 -0.515654 -0.282755 0.155696 -2.047514 -0.931181 1.084931 -0.815371 -0.304818 0.849873 -1.593604 -0.857848 -1.018380 1.514205 -1.201498 0.802229 1.949173 -0.604508 0.779183 1.334983 0.160613 0.668145 0.869054 1.266488 0.264819 -1.131439 -0.910528 0.370131 -0.383232 0.198880 -0.222747 0.258248 -0.645142 -0.410586 0.564378 -1.272603 0.125805 0.064278 -0.460335 1.055968 -0.457659 0.427454 0.212901 -0.097413 -1.125118 -0.241123 -0.197864 0.407933 0.156276 1.679516 -0.501842 0.312035 -0.368009 0.384404 1.063483 0.357136 -0.255714 0.787239 -2.328399 -1.414028 -1.648812 0.312586 -1.210505 -0.773583 -0.044424 -0.885624 -0.503987 0.050116 -0.054877 1.080471 0.699581 -0.360907 0.605763 1.816593 1.079893 0.168597 0.713887 1.321407 -0.817858 -0.175922 -1.557399 -0.557691 -1.228809 0.240758 0.420711 -0.486165 0.106079 0.512531 1.158156 -0.389138 -0.922095 -0.209568 -0.562134 -0.305664 1.244645 0.597807 -0.318051 0.026688 -1.484953 0.920233 0.109371 1.784944 -0.587162 -0.885480 -1.133167 0.431901 -1.083597 -0.048609 -1.103106 0.502448 -1.101839 -0.161878
人 -0.394947 -0.830676 -0.435822 0.077057 1.556064 -0.213200 0.917464 -1.023571 -0.142238 0.651879 0.483730 0.790079 -2.254193 -0.181583 -0.441641 1.449003 -0.879995 1.205265 0.868781 -1.346035 1.762599 -1.701325 -0.450839 0.783347 -0.203850 -1.206843 -0.624147 -1.471657 -0.397676 -0.610303 -0.201547 -0.708434 0.866585 2.276062 0.508000 -0.146078 -1.386473 0.058989 0.091011 0.928093 -0.314999 -0.230830 0.919413 -2.368900 -0.646726 -0.508399 -1.727408 -0.770022 -1.229854 -0.996464 -3.201607 -0.470944 -0.110454 0.554824 -0.251650 0.467204 -1.363886 -0.812593 -2.229791 1.387519 0.106566 -0.742522 0.341429 -0.682432 0.995825 -0.238903 0.116053 0.020806 -0.116393 -0.640266 -0.657618 -0.523915 0.824456 -1.343486 -0.053431 0.045442 -0.684331 -0.646609 0.477538 -1.436876 -1.560356 -1.014475 -2.078267 -1.940104 -1.149904 -0.977434 -0.134405 -0.798253 -0.388567 -1.288258 -0.121128 -0.811835 -1.000670 0.207625 0.297924 0.571864 0.031634 1.010152 2.478658 0.012242 -0.219068 -0.929037 -1.328035 -0.845210 -1.589936 -0.581222 0.164723 0.701559 -1.504792 0.310684 1.155560 0.443474 -0.057661 -0.559615 -0.757027 0.378618 -0.259433 -0.724259 -1.230390 1.804390 0.149857 0.872118 -1.053147 0.819593 -0.544895 0.919234 0.078555 1.265248 0.075683 0.149989 0.882850 -0.945117 -0.864514 0.761578 -0.392843 0.127509 -0.525585 -0.333640 -0.043548 -1.358486 0.382463 0.204132 -0.900212 1.399168 0.173321 0.511812 1.770552 1.151381 -0.001966 2.147261 -1.407420 -0.467101 1.307353 -0.096204 0.316086 -0.381074 1.610427 0.369650 -0.089207 0.397091 -0.537888 -0.997179 -1.330676 0.005843 -0.116028 0.483993 -0.142534 0.738998 -0.464255 1.133162 -0.651382 -1.989506 -1.347738 0.168165 -0.308107 2.204324 -1.252053 -0.855756 -0.274034 -0.522713 0.826692 1.079807 -0.082738 0.769602 0.021532 -0.454328 0.488442 1.419682 -0.145576 0.432210 0.240532 -0.053427 -1.739959 -1.371345 0.784719 0.434662 0.290676 -1.175107 0.736999 -0.652907
个 0.963790 0.343449 -0.112255 -1.707153 1.177802 2.230947 -1.687973 -0.212147 -1.838671 -1.136548 0.256265 -0.153383 -2.744707 -1.471525 -1.417601 0.154541 0.307671 -0.041318 -0.252258 -1.377077 2.255230 -0.688207 0.679993 -0.032820 -0.018597 -0.960917 2.357948 -0.669099 -0.330695 1.576714 -2.319351 -0.528426 -1.193117 0.914380 1.708639 -0.075482 -0.167474 -1.856991 -0.927967 1.401052 -1.306325 -1.320807 0.274663 1.743847 -0.989118 -0.668463 -0.090438 -0.276550 -1.913738 -1.641743 -0.551672 -1.739081 -0.270970 0.341145 0.142837 -1.747018 -0.349027 0.333235 -0.780429 -2.058712 2.379466 -0.863770 -1.148409 0.736849 -0.092424 1.556601 0.391869 0.423929 1.114027 1.009930 0.469754 -0.985582 1.598943 -0.585392 0.187165 0.819789 -2.556192 0.616111 0.233763 1.179884 -0.753607 0.491629 1.404921 -0.240765 -0.286942 2.935643 -0.294654 -0.522693 -1.646497 -2.400549 2.174146 1.053358 -0.141491 2.146807 0.806361 1.583665 -0.910135 0.508256 2.414461 1.572037 -0.368279 -0.784637 1.657540 0.231338 1.532808 -1.860914 0.361940 -0.312952 -3.497023 -2.305586 -0.131314 2.899152 -0.028656 -1.126756 1.044170 1.719438 1.047007 0.760149 -0.916693 1.217623 1.653789 -0.660922 -1.072512 0.587549 -1.291924 -1.580262 -1.619289 0.081012 0.339938 0.779407 -0.074452 -0.997841 -1.314026 0.950772 0.390969 -0.711950 0.150653 -0.508779 -1.215440 -0.792034 0.926386 0.118467 0.702971 1.793128 1.012344 0.070392 2.745137 0.827664 -0.221570 0.516010 -0.407633 -0.468417 -0.220805 0.819708 0.728259 -0.729963 0.763960 0.198561 -0.057326 1.490826 -1.516960 -0.133713 -1.821025 -2.528421 0.478603 -1.801512 -0.922466 0.059721 0.189739 -1.062154 0.399882 -0.908699 2.538459 -0.829847 -0.012353 -1.386361 0.499766 0.400771 -0.307602 0.867541 -0.998269 1.564595 -0.427141 -0.171754 -0.321735 -1.075471 1.720069 1.870835 -0.679367 0.755179 0.399340 1.827510 -0.874392 -1.523572 0.924247 1.302999 -0.813483 -1.348425 -0.509102 -0.713660
这 -1.004105 0.269326 -0.460453 0.797666 0.400010 1.093477 -0.011250 1.331509 1.025654 0.852992 -0.128817 -1.097007 0.132793 1.002868 1.585058 -1.440079 -1.373266 0.375260 1.998141 -1.050150 0.553674 0.877247 -1.270373 0.856672 -0.404778 0.953540 -0.877010 -0.716244 0.446261 -0.129047 -1.320083 -0.626586 -0.100205 1.383451 0.264596 1.981156 0.508583 0.580083 0.019139 0.132724 1.148052 -0.252836 0.431530 0.233782 -0.011345 0.391105 -0.959127 -1.876997 -0.455439 -0.728749 -0.735374 -0.847115 -0.482767 -1.143433 0.195191 -1.079146 -0.539808 -0.392624 1.401707 -0.619887 -0.526867 0.318901 0.179716 -1.966146 -0.006713 1.312973 -0.162917 0.287967 -1.441351 -1.296771 1.388915 -0.300967 0.149577 -0.007298 -0.628380 -0.012356 -0.824211 0.399470 0.347403 -0.340007 0.896006 0.110887 1.152717 1.188830 0.852394 0.130054 1.150857 0.447440 0.976005 -1.131727 0.561022 -2.239993 0.717829 1.463441 1.047310 0.492864 0.288669 0.429396 1.229347 -2.031095 1.163407 -0.308885 0.709229 0.789386 -1.485657 -0.772308 0.022847 0.606015 -1.133698 -0.335190 0.595236 0.426086 0.159532 0.654172 -0.241949 -1.593008 0.129309 -0.361224 0.396275 0.180013 -1.269794 0.478359 -0.803999 1.903708 -0.524640 -0.404972 0.842247 -0.792443 1.385675 -0.951826 -0.027539 0.898396 -0.430773 -1.434842 0.628102 -0.701376 -0.283736 0.228206 1.797490 -0.346317 0.915658 1.962816 -0.619875 -0.390520 1.095716 -0.461924 1.741947 0.499330 1.273424 2.237112 -0.704847 -1.268560 -0.617547 -0.522736 0.389379 0.448492 0.996630 0.647106 1.710211 1.157578 -1.097936 -0.578561 -0.982904 -0.132416 -0.932952 0.661936 -0.368515 0.875578 -0.376584 -0.304235 -0.567491 1.102014 0.941062 0.365605 0.901469 -0.700132 -0.313748 -0.413224 -0.814572 -0.844257 -0.564999 0.995984 0.604661 0.996342 -0.012001 0.656586 -0.503977 -0.771466 0.261645 -0.493043 -0.089495 -1.382912 1.174520 1.563084 0.661960 -1.112942 -0.055199 1.727416 0.777499 0.385488
将 0.526220 0.502685 -1.128198 -0.201534 0.023370 0.654565 1.143945 0.133399 -0.050849 -0.496125 0.302906 -0.668671 1.384319 0.408302 0.733773 -0.803743 1.313916 -0.514193 -1.187980 -2.053405 -0.194983 0.342820 0.372072 -1.872971 0.816628 -0.230661 -0.647610 -1.071288 -0.852549 -0.138555 -0.283288 -0.321655 -1.852384 -1.579966 -1.144959 -1.193152 0.135599 -1.849901 -0.912821 1.078490 1.258251 1.476864 -0.700201 1.171953 -1.489888 2.650942 0.266270 2.662305 -2.082462 0.241283 0.684635 0.959364 0.460535 0.615658 -0.068867 1.599744 1.822222 -0.013294 0.809685 -1.218118 -0.647003 0.355553 -0.978311 -0.342773 -1.163238 0.819175 0.211839 -0.627288 0.843622 0.464317 1.571528 -0.377591 0.555116 -0.412501 -0.972689 -0.535014 -0.202049 0.963276 0.676340 -0.681899 1.511687 0.761289 -0.291200 0.578882 1.800306 -1.055806 1.353309 0.270514 -0.267473 0.191474 1.063455 1.248299 0.092027 -0.168318 0.076535 1.384202 -0.595105 0.193301 -1.202557 0.190130 0.353949 -0.295267 0.694474 -0.403394 -1.096364 -0.477590 -1.276188 -0.614529 -0.855997 0.462320 0.253514 1.186399 0.176905 -0.390509 -0.136910 0.223055 -0.533288 -0.248803 0.547888 -0.749879 -0.555261 0.226061 0.797075 -1.920031 -0.156722 0.331463 1.140375 -0.104066 0.543903 1.029766 -0.324695 1.689685 1.524391 -0.445540 -1.516492 -0.071564 -0.400689 -0.284181 -1.041859 -0.866716 0.242298 1.859620 -0.504969 -0.902099 -1.708650 -0.527377 -1.400935 0.851964 -0.980647 0.672698 0.801628 0.313025 -0.911305 -0.198815 -0.592790 -1.173157 0.105035 0.581896 0.572250 -0.630597 1.094578 -0.544276 1.337083 -1.068155 0.159706 1.535604 -0.582042 0.000513 0.055362 -1.338024 -1.728341 -0.670945 1.424304 -0.426461 0.484400 -0.951366 0.504797 -0.357079 0.720968 -0.369621 0.974234 0.842032 -1.195220 0.695691 -0.623595 -0.121636 -0.002614 0.351171 -1.866818 0.183450 -0.399300 -0.635458 -0.152884 -0.616645 -0.758516 0.422451 -0.491775 1.361133 -0.275589 -0.253042
中 -1.153259 0.388735 0.577005 1.113929 0.290516 0.402837 -0.530959 0.054616 0.461159 0.345323 -1.082443 -1.346702 0.600087 0.430930 -0.055378 0.959032 0.414395 0.630608 2.193845 0.606911 -0.019069 1.417529 -0.858864 0.235553 0.184779 -0.937319 1.236093 0.513726 -0.149753 1.673257 -0.587183 -0.585249 0.220290 0.602354 1.556919 -1.325423 -0.271900 -0.171118 1.645436 0.822587 -0.010390 0.207527 -0.587756 0.308560 -0.913793 -0.085969 -0.049781 0.000519 0.167917 1.005997 -0.063530 -0.458978 -1.014852 -0.015458 -1.198760 -1.547286 -0.724562 0.538636 -0.092934 0.727865 0.560129 -0.720174 0.048519 1.092520 0.087407 0.032918 0.864178 0.641201 2.173856 -0.004410 0.100574 1.093748 -0.471253 -1.317488 0.238538 -1.103846 -0.948282 0.223418 -1.394632 0.476679 0.794877 0.293450 0.878296 0.031792 0.636008 -0.556684 -0.473131 -0.985211 0.484378 0.600363 0.423496 0.176336 -0.984764 0.803266 0.562218 2.581765 -1.948874 0.800282 -0.877857 -1.038931 0.457286 -0.777260 -1.722536 -0.127825 1.691859 1.159227 0.128505 1.824067 0.173729 1.349039 1.477070 0.988909 1.166655 -0.950968 -0.166630 0.488694 0.626125 -2.123828 -1.053627 -0.976831 0.071096 -0.576624 -0.234279 0.460341 -0.314505 0.834400 -0.081018 -0.786627 -1.052560 -2.297426 -0.746522 1.638045 1.434978 -0.123922 -1.219055 -1.005449 -0.456225 -0.131245 -2.510872 -0.779596 1.000760 1.914459 0.445587 -0.564051 -1.134663 0.013491 1.024217 -0.395769 -1.007047 0.972349 -0.880839 0.180156 0.445650 -0.528285 -1.104538 0.604821 -0.311622 0.962535 0.221771 -0.222635 -0.219658 2.960940 -0.311024 0.999654 -0.150552 -0.317977 0.066534 1.145172 0.553271 -0.597971 0.723881 1.198252 0.577762 -1.520628 0.808264 -2.095166 1.080007 -0.993309 0.004458 -0.740293 -0.248321 -0.897959 0.955512 0.681474 0.931463 0.063486 -0.883431 -1.317345 0.701062 -0.877739 0.136548 -0.108882 -0.753485 -0.741810 -0.154542 0.401130 2.405707 0.051788 1.033636 0.169752
工作 -0.320260 0.104817 0.022409 0.801499 0.920705 -2.108301 0.166511 -0.053002 -0.374723 -1.238922 -1.314560 -0.475039 1.628131 -0.686634 -1.493429 0.942582 1.042967 -1.178146 0.254113 -1.944895 0.534864 -1.277376 0.516099 0.341946 -0.835645 0.314138 -2.643824 1.713498 0.538207 0.913194 0.182930 -1.793900 -1.342811 -1.583384 1.181711 -1.458623 0.063269 0.889875 -0.453383 1.104235 -1.370713 1.664949 -0.418662 0.018997 -2.705016 -0.005810 -0.704561 -0.271320 -0.964865 0.324996 1.362786 -1.625359 0.617049 -1.083120 -0.857049 -0.354697 -0.353487 -0.420997 -1.833252 0.053150 -0.560908 0.598978 1.458826 -0.431615 0.520723 -1.733284 0.640943 -1.322450 1.759966 -0.827736 -1.390845 -1.588084 2.332016 1.586952 -2.012913 -0.503497 0.537150 -1.402461 -0.288778 2.239215 -0.230421 -1.067408 -0.454388 0.418033 -0.707121 -1.517083 0.136579 -0.724692 -0.860497 -0.417714 -0.506071 -0.281791 -1.435158 -1.756874 0.625703 -0.639808 -1.571344 -0.190358 -1.436910 1.598981 0.164173 -0.287667 1.587704 0.363233 -0.357147 2.679798 0.616902 0.218580 -0.399463 -0.580898 -0.837782 0.533121 0.429715 0.883211 0.052773 0.377228 -1.077805 -0.202968 -2.063721 -1.132344 0.315625 -0.461558 -0.830440 -1.215834 -0.181071 -1.614679 1.221686 -0.192776 -1.364109 1.557445 0.405410 0.620870 0.924456 0.336485 0.594460 0.197021 1.350412 -0.226631 0.822170 1.164131 -0.378447 0.466037 1.487004 -1.382293 0.078323 0.216819 -1.394926 -0.488766 0.384540 -1.014184 -1.145934 2.223937 -0.864373 -0.302753 0.083029 1.109568 -0.712717 -1.185629 -1.316147 -1.888974 0.448253 1.132870 0.633383 -0.772359 -0.143583 -1.453442 1.466110 -1.503027 -0.657313 -0.626594 0.206861 0.257279 -0.016691 1.387938 -1.621811 -1.860280 0.304379 -0.400030 -2.497227 2.092348 -1.054480 0.182293 1.895294 -1.389603 1.064497 0.200468 -1.232421 -1.403056 -0.787413 -0.195436 -0.417302 -0.065823 0.095584 -0.695019 0.453454 0.300687 -0.466371 -0.629473 0.053758 0.339667
与 1.365371 -0.429219 0.368051 -0.128237 0.129087 0.731120 0.499010 1.428633 0.200808 0.091269 -1.010737 -0.227851 0.958918 0.414649 1.641892 -0.955518 0.186842 0.614381 2.216942 -0.008181 -0.620185 -0.559415 0.198894 0.604913 0.110051 1.681950 -0.636990 -0.106374 -0.301750 -0.475612 -0.407265 -0.015534 -0.105005 -0.705105 1.842468 -1.307939 0.049581 -0.323641 -0.520696 -0.162111 2.360979 1.646275 -0.742789 1.033520 -2.165807 -0.158437 1.058095 -0.184409 0.307502 1.217257 -0.119669 0.223918 -0.480098 0.146273 0.997685 -0.177177 0.520151 -0.744238 0.504356 -1.870007 0.080275 -1.368430 -0.824461 0.725472 -0.647935 -1.443954 -1.336249 -0.060184 0.201552 -0.691913 -1.694390 -0.194093 0.500707 -0.191073 -0.872975 -1.224994 -1.718616 1.666082 1.593274 0.930930 1.014697 -0.494960 0.228794 -0.610473 0.059305 0.284461 -0.184072 -0.038543 -0.261081 -0.130599 -0.058995 -0.693675 -0.798992 0.786373 -1.412322 0.570670 0.690865 -0.994928 -1.162308 -0.821161 -1.381149 1.565129 -0.189891 0.663760 -1.009885 1.957048 0.533247 -0.313307 0.664674 0.434034 0.460861 0.768664 -0.482819 0.517933 -1.752972 -0.919789 0.909461 -0.039072 0.759151 0.720606 -0.643574 -0.523692 0.257081 -0.791203 0.248245 0.231463 -0.261922 0.860949 -1.336945 -0.863228 -0.307867 0.753282 0.712214 0.062172 0.691028 0.594307 -0.480588 -0.120007 -0.806365 1.695400 -0.906832 0.597328 0.691819 0.259432 0.869991 0.394418 -0.155997 0.094674 -1.232558 -1.213704 -0.666048 0.022794 -0.192871 0.237410 -0.386176 -0.800533 0.996220 0.773536 0.843285 -0.357281 -1.044019 0.541657 0.155424 0.325633 0.236766 0.731775 0.004217 1.324547 0.244094 0.095726 -0.009564 -0.639517 0.570288 -0.624600 0.250583 -0.265416 0.950323 0.864143 -0.494779 0.054623 -0.465069 0.990682 0.054506 0.329224 -1.222520 -2.094989 -0.081229 0.952314 1.592007 1.002151 -0.555291 -0.018245 0.727096 0.351222 -0.621658 -2.344928 0.921753 -0.930897 -0.005794 1.846977
要 -0.197571 -2.252505 -1.787141 -0.127329 1.082400 -2.000430 0.506803 -0.499960 1.263031 -0.529532 -2.735082 -0.632362 0.941856 -0.227671 0.028495 -0.289302 0.475584 -0.081747 1.754921 -2.513828 1.400119 1.790424 0.409896 0.831287 -1.575054 1.440634 -1.743020 0.689778 -0.006926 -1.242427 -1.509817 -1.695686 -0.829707 -1.658403 -0.177330 1.144622 -0.271317 -0.547178 -1.626489 0.420240 0.269047 -0.724149 -0.680735 -0.411935 0.981123 1.829025 -2.820744 -0.682690 -0.480213 1.869156 -0.748870 -1.391841 -0.255404 -1.011424 1.144791 0.852541 1.667254 -0.088651 -1.071054 -0.834397 -1.359446 0.267056 0.818663 0.327810 -0.115138 -0.659458 -0.472014 2.152747 0.154295 0.636474 -0.823042 -0.797198 0.958395 1.643185 0.633020 0.866543 -1.359215 1.566597 -1.358596 1.355534 0.190653 1.169312 -1.295933 0.077453 2.574848 -0.050994 -0.064473 -1.007833 -0.664370 -1.883995 0.671877 -0.329743 1.683824 0.252588 -0.105678 -1.751865 1.019922 1.322305 -0.088111 0.296435 1.705906 1.031442 1.458749 -0.714826 -1.018474 0.257216 -0.026619 -0.369990 0.937598 0.773554 -1.544051 -0.603592 0.412802 1.096233 -1.094632 1.372488 -0.610494 1.409919 -0.286479 -0.098661 -0.839259 0.760691 0.529359 1.116134 -0.058863 -1.796814 -2.620616 0.757426 2.095825 1.388704 -1.233764 0.800184 -0.598254 -0.491163 2.251549 -0.333222 0.718209 0.512944 1.917986 -0.108868 -0.165256 -0.159618 1.151514 -0.325278 0.438046 -0.564817 -0.637415 1.234286 -0.732276 0.656867 -1.336439 0.704530 -0.839159 -0.654402 0.936163 -0.268899 -0.948086 -0.904320 -1.632910 0.330488 0.417162 0.319784 1.246786 -2.341866 0.034906 1.576631 0.534053 -1.291596 -0.527715 -1.438760 -0.157365 -1.221201 -1.037851 0.400636 -0.865693 -2.464179 -1.530262 -0.175372 -0.729792 -0.281747 0.307025 0.837164 0.867228 1.248939 -0.098138 1.270285 -1.100538 -1.077733 0.312959 -2.136453 0.762681 -1.123638 -1.109276 -0.769700 1.010815 0.419697 -0.176960 -0.344667 -0.053073 -0.369589
不 1.389563 -3.082654 -0.989947 2.199657 1.011449 -2.110555 0.821437 -0.663263 1.840807 1.772791 -0.295644 -0.800289 -0.534019 0.143715 0.879371 0.503162 -0.768631 0.327112 1.763741 0.131931 1.828991 0.702255 -0.368223 2.158457 -0.520512 1.042603 -1.168702 -0.689244 0.220164 -0.574026 -2.447055 -0.679442 -0.720942 -0.229514 0.115446 0.834857 -1.577643 -1.016238 -0.342095 1.256219 -0.394619 1.387969 -0.105848 -0.815092 0.329959 0.071664 -1.996923 1.090045 0.915854 -0.236845 -0.077134 -0.945882 -0.622269 0.645165 -0.732278 -0.702428 1.125976 0.008105 0.622574 -0.233979 -1.379136 0.094686 0.874235 1.120978 0.423695 -0.768017 0.651344 1.188152 1.713906 -1.087501 -1.422198 -0.535481 -1.130945 -0.387581 0.572052 0.439145 1.100531 0.269297 -0.999940 -0.511728 -0.464752 1.411175 -1.108035 0.342678 0.257520 0.388110 0.909283 0.955543 -0.509590 -0.725460 0.916432 -0.522384 1.262819 2.209787 2.288945 -0.273195 0.193187 -0.814927 -1.037789 -1.759523 0.419054 -0.731608 1.793772 0.997806 -0.999525 -0.302736 0.556995 -0.124861 1.015038 0.835122 -1.657359 0.053827 -0.571024 0.109414 -0.064614 -2.195965 -1.431253 2.030773 1.286927 0.551246 -0.885294 0.159178 -2.187844 -1.557052 -1.465847 0.749744 0.024228 -0.116113 0.033523 -0.414645 -0.547558 1.632351 0.361935 -0.510125 2.177493 0.027751 -0.398990 -0.348870 0.569595 -0.377028 -0.269788 -1.214308 2.310614 0.280253 1.184746 -1.299578 1.811425 0.889077 -0.717799 -1.029548 -1.153138 -0.216066 0.633798 0.053706 -0.045049 -0.868123 -0.311884 0.001605 -1.901814 0.011025 -0.090726 -1.132748 -0.663293 -0.132407 0.393868 0.072310 -0.271500 -0.238190 0.011405 0.763598 -1.936644 1.206998 -0.870493 2.316568 -1.532989 -0.409811 -2.540965 -1.095259 -1.421363 -1.364239 0.226068 1.176343 -1.398554 0.625187 -0.083081 0.844724 1.664474 -0.106620 1.054325 0.582968 -0.799143 -0.707193 0.477264 1.646010 0.384298 0.004606 0.262417 -0.133678 -1.305797 -1.506413
； 1.266001 -0.681120 -0.669798 -0.071513 1.479972 0.054014 -0.068029 -0.377766 -0.930942 0.483055 -1.999633 0.560612 -1.896187 -1.704768 1.519130 0.844702 -0.728329 -0.449855 0.548485 -0.031357 -0.232179 -0.214035 0.580795 0.848583 1.490302 -0.937973 0.394668 -0.042353 0.307025 -1.929383 0.304564 -0.401552 -1.657559 -0.279606 0.310523 -1.089244 -0.211586 -1.319973 -0.754001 1.297398 0.584168 0.931030 0.176733 0.110668 -1.809407 0.410710 -1.143042 -0.190100 -0.297549 0.374845 -0.104099 -0.396789 1.028882 0.977630 0.919327 -0.431994 0.046867 -0.161475 0.433553 -1.162556 -0.588564 0.735699 -1.260682 -0.185402 -0.139141 0.091478 1.293527 -0.492883 0.226344 0.998759 0.223530 0.325764 0.132022 0.936262 -0.640301 -0.477763 -0.278258 -0.317406 1.369354 1.402241 -0.247729 -0.063553 -0.322875 -0.833678 1.212744 -0.870398 0.528015 0.112080 -1.776371 -0.118859 0.762294 0.526127 -1.463298 -1.728069 1.256685 -2.362447 0.454661 1.141270 -0.204562 1.563915 -0.127182 -0.261858 -0.225903 1.096294 1.165126 -0.091846 -1.442369 -1.326019 -0.720296 -0.138037 1.713180 -0.691268 0.181807 0.188063 0.965308 -0.272697 -1.436572 0.166062 0.765655 0.661317 0.597097 -0.963242 0.852580 0.534267 0.657060 0.184247 -0.572948 -0.100245 0.260537 1.412752 0.379530 0.681800 -1.083650 0.582328 0.183240 0.613807 -1.058282 0.169227 -1.270401 -1.235407 -0.201386 -0.680259 0.847484 1.381563 0.537713 2.900185 -2.800487 1.322967 -3.453850 -1.480268 -0.232842 -0.401380 0.548692 -0.724674 -0.895652 -0.233541 1.021584 0.458206 -0.602117 -1.450097 1.839300 -0.056201 -0.131213 0.066203 -0.159015 0.191450 0.064235 0.051938 -0.322638 -1.453220 0.592882 1.366180 -1.278672 0.135859 -0.724834 -0.392214 -0.364602 1.065741 0.441784 -0.331028 1.006078 1.746531 -0.397353 -0.233072 -0.891544 -0.981627 0.003029 0.467702 -0.195105 1.150258 -0.343190 0.663260 -0.983518 -0.750822 1.752629 -0.146999 0.931655 -0.658453 -0.697453 -1.370675
例 -1.333382 1.511551 1.074346 -1.384404 -0.849256 1.075426 -0.719790 2.471763 -2.439966 1.059000 1.218256 0.860309 -3.802752 -2.539839 0.747521 2.517724 1.116750 1.196688 -2.850834 1.059547 0.335028 -1.065991 0.242408 -0.690835 0.825799 -0.838584 2.433833 -1.608817 -0.824130 0.405530 -0.632474 -0.316627 2.860408 0.674929 0.927358 -1.852365 -0.411387 1.790835 -0.362188 -0.432872 -0.942579 -1.824422 2.638312 -0.281334 2.216874 -1.687612 -0.730396 0.217310 -1.544336 -1.828078 -2.167137 -0.482463 0.472441 -1.082418 -1.393182 -0.272896 -0.388755 0.208601 -1.169598 -0.128881 0.920754 -1.548317 -1.972558 -2.133541 1.819150 -0.880715 -2.056541 0.395532 2.401858 1.107762 0.619583 0.062183 2.047728 -3.302229 2.133000 -1.551212 0.080166 -3.545147 0.988274 -1.065341 -0.535611 0.727759 0.319099 -1.873493 -0.445442 -0.369274 2.361559 -3.947930 -0.197023 0.009260 -0.103658 0.027717 -0.253857 1.415097 1.637597 -0.620445 0.598363 -0.893943 2.251151 -1.545506 0.019586 -1.726366 0.392437 -1.761701 2.099285 2.881599 0.815012 0.751761 -2.880863 1.697344 1.997474 2.029578 0.836332 -2.063634 -2.301643 3.258927 0.359138 -1.592966 -0.276757 0.584479 1.934586 -0.098824 1.470946 -1.305780 -1.894794 -1.892655 1.125545 0.877600 0.802022 1.056394 -0.479198 -0.495138 -0.220596 2.692834 -0.811592 -0.499751 -1.540508 -0.964864 -2.506576 -0.674479 -0.306032 0.686900 0.196450 1.973325 1.022526 2.580193 -0.054976 -2.717093 -1.163998 0.125533 -0.642754 -3.676791 1.061707 -2.753582 1.766021 1.148249 0.866145 0.343208 -0.882899 -1.035156 -2.174298 -2.971010 -1.072869 0.403731 1.897536 -2.018955 -0.174832 2.528028 -1.019122 -0.771411 0.094430 -1.855362 0.544254 -0.725202 -1.023710 0.584280 -1.778150 -2.224329 0.147421 0.809427 0.258800 0.064721 0.226705 1.854564 -3.536387 -0.382608 -0.502591 0.320284 1.032413 0.640786 1.069375 1.182596 -3.868592 0.293767 1.195629 2.036356 -1.968135 -3.834120 -1.869519 0.243267
我们 0.221207 -2.891837 -0.265323 -0.952551 0.241605 -0.897606 -0.420139 0.224856 0.807169 1.634648 -0.080747 -1.297872 0.271315 0.841121 1.542903 0.494555 -2.288591 -0.471464 1.928175 -1.309786 0.956553 2.087848 -0.436097 2.060267 -0.523849 1.091065 -0.858644 0.262951 0.730067 -0.047593 -1.672089 -1.009040 -0.156004 0.078222 0.222045 1.907969 -0.103134 0.415994 2.058033 1.292916 1.392199 -0.128463 -0.256659 -0.636082 1.291394 -0.414650 -1.359280 0.753040 -2.421047 0.529672 -1.964826 -0.147519 -0.285211 0.496274 0.014624 0.700068 0.111141 -1.052521 2.406991 -1.377756 -1.448292 -0.228609 0.787091 1.242297 -2.323612 -1.096024 -0.529296 3.036272 -0.602125 0.128351 0.248654 -0.777774 -0.795070 1.449158 -0.782614 -0.407261 -1.398142 1.013899 -1.060784 -1.979128 -1.281619 1.652208 0.264512 1.035962 -0.117338 -1.214635 1.341373 1.046062 1.035745 -1.025557 -0.351762 -0.493566 1.755069 0.869552 -0.372797 0.961378 1.123638 -0.057171 0.047789 -0.455166 1.209176 1.454690 1.580157 -0.351820 -0.236603 -1.139356 -0.701257 0.318607 -0.244507 0.136579 0.215672 -0.155724 -1.218012 0.873917 -1.615261 -0.304638 0.470806 0.392240 -0.658553 0.286483 -1.398710 1.001093 -0.366884 1.387604 0.384563 -1.606712 -0.334696 -1.565149 1.437523 0.763995 -0.217901 -0.115313 -0.146129 -0.792114 3.615574 -1.220806 -0.108580 -0.706118 0.300560 0.253467 -0.041588 -0.627065 -1.479792 0.711429 0.351415 -0.453789 3.297714 0.479842 1.132604 1.383333 -0.375643 1.231669 -0.639959 -0.031073 -0.332424 -1.331660 -0.608646 0.191337 -1.096521 -0.329076 0.317183 -0.462557 -0.756971 -1.471258 1.584112 -0.175112 -0.522334 0.071966 -0.624508 -0.064733 -1.344274 -2.086078 -1.308207 0.014734 -0.162016 -2.786150 -0.962434 -0.393248 -0.682671 0.289138 -0.581273 1.090906 1.586218 -0.597419 -0.214180 2.859978 -0.904753 -1.217791 0.305425 -1.222298 0.666110 -0.075724 -0.403713 1.140156 1.069386 -0.091006 -0.341883 0.904760 0.186313 1.220157
他 0.355333 0.300937 -0.893301 0.337322 -0.517546 0.889587 -1.119049 -0.912330 0.108057 -0.701552 0.715919 -0.332966 0.159040 1.655705 0.383949 -0.387931 -0.599010 -0.319230 2.341497 -2.862062 0.912269 1.228930 -0.085060 2.045149 -1.243919 0.050463 0.596097 0.349586 1.161123 -0.654515 -1.069685 0.330530 -0.609907 0.931958 0.122209 1.663866 1.277817 -0.155973 0.701068 -0.090005 1.036858 -1.220545 -0.931349 -2.063426 -0.552492 -1.444336 -1.823620 -1.356929 -0.562479 0.244632 -1.057402 -0.112450 -1.263277 -0.397867 -1.004323 -0.569915 -1.314854 0.428829 2.608095 0.289210 0.731575 -0.114994 1.115896 -0.712233 0.140588 -0.051610 0.468837 -0.326242 -0.053825 -1.378307 -2.194536 -0.630574 0.599860 -0.358697 1.327898 -1.704308 0.180211 0.075889 -2.970633 -0.192082 -0.882485 -0.239508 -0.541119 0.709115 -0.075566 -0.675715 1.316451 0.631483 -0.182245 -0.608219 -0.838741 -0.489025 0.327448 -0.246561 0.370605 2.621160 0.756718 -0.124591 1.154256 -0.832897 1.121649 0.346771 1.522439 -0.002456 -0.930039 -0.199904 -0.221617 0.616734 1.501450 1.653563 1.511864 -0.215966 0.810607 0.836735 -0.001540 1.551233 -0.641739 0.472120 -0.235023 0.636117 -1.263560 0.272128 -1.762259 1.169819 0.552649 -0.495693 -0.791675 -0.048129 0.953698 0.014411 0.975620 1.340354 0.677757 0.534633 1.970632 0.145059 0.415957 -1.010931 1.509333 -0.664628 -0.033168 1.321135 0.400215 1.362520 0.552225 -0.669485 -0.595361 -0.175890 2.603380 0.365287 -0.316021 0.326135 0.595317 0.901700 -0.178860 0.128848 0.123451 -1.747222 -1.256322 0.914327 -0.954007 0.738610 -0.364233 1.442562 0.047084 1.115139 0.427929 0.766898 -0.130335 -0.189841 -0.025915 -0.525315 -1.203439 0.520931 -0.003400 0.785238 -0.211559 -0.367702 -0.473365 -0.239613 -1.065699 1.310570 0.440349 -1.384923 0.490783 0.579476 0.527711 0.409583 0.502112 -0.666461 0.122733 -0.534903 0.683904 -1.889939 1.208921 -0.483219 -0.791660 1.199915 -0.188598 0.577409
就 -0.077797 -0.714117 -0.181146 0.829328 -0.271681 -0.592188 -0.458260 -0.769359 -0.260933 -0.555762 1.429563 -0.757716 -0.522896 0.259997 0.980264 0.034532 -0.133414 0.414700 2.196820 -1.247422 1.878350 0.425465 -0.370966 0.946141 0.049220 0.329230 -0.442654 -0.979300 2.078302 0.566550 0.448874 0.936976 -0.487900 0.888155 0.111400 0.794095 0.025182 -1.354845 -0.342031 -0.456325 0.114231 0.793865 -0.709539 -2.222574 0.257212 0.365061 -0.981024 0.277297 -0.333550 -1.199010 -1.177792 -0.611141 -0.190509 2.045589 1.057147 1.304660 -0.586948 0.917335 0.813922 0.498320 -1.268750 -0.289876 -0.722165 -0.246031 -0.128744 0.921410 -0.821048 0.975952 1.017342 -0.645128 -0.426261 0.156782 -0.623441 0.029792 -0.318463 -0.002417 -0.677169 0.771173 -1.595272 0.215457 0.079316 1.484707 0.012257 0.542214 -0.262141 0.661084 1.637209 1.014862 0.002722 -0.035696 -0.254187 0.420662 1.303932 -0.349738 0.623879 2.139349 1.251987 0.773890 0.425570 0.855476 0.127093 -0.222061 1.893536 -0.963215 -1.684128 0.619617 0.277175 -0.193855 -1.084526 -0.484113 0.411324 -1.223752 -0.100606 0.667543 -0.226179 -0.649639 -0.736953 -0.311453 -1.116562 1.323132 -1.296351 -1.314153 -2.310261 -0.062925 -1.399597 0.119228 -0.506052 -0.987156 1.551362 1.510421 0.745947 0.844488 -0.214996 -0.156178 3.139635 -0.712442 0.199173 0.379068 0.779878 -0.193949 -0.344767 0.009400 -0.019344 0.269559 0.763403 -1.272269 2.284949 0.955538 0.032849 0.289606 0.004968 -1.062339 -0.098638 -0.120955 -1.266186 0.159869 0.505645 -0.349517 -0.104385 0.762193 0.870742 -0.283947 -1.254618 -0.107089 0.225930 -0.837345 -0.118562 0.454050 0.901049 1.066787 -0.640584 -0.742163 -0.186221 0.566768 0.585044 0.728811 -0.272991 -0.897188 0.394265 -0.563323 -0.384655 -0.233574 0.603322 0.841379 0.740846 2.212863 1.199541 0.499310 0.847683 0.211827 -0.046408 -1.581813 1.358665 -0.628717 0.782281 1.338568 -0.102476 -0.861018 -0.215091 0.096021
被 0.318661 1.034516 -0.574661 -0.295898 -0.884807 0.865364 1.403691 -0.996332 0.858578 0.473384 0.967237 0.177136 0.550300 -1.088180 0.545576 0.159574 1.053365 -0.015436 1.154453 -0.013520 0.657771 1.006780 -0.900661 -0.838728 1.435354 -0.718321 0.787300 -1.176757 1.245526 -0.787455 0.014022 -0.039485 -1.333712 0.984237 0.307683 1.261721 -0.340616 -1.163726 -1.004942 -0.315131 -1.252547 -0.559144 -0.144751 -3.519094 -2.001388 0.343394 -2.299187 0.770650 0.067786 -0.783567 -2.001891 -0.033896 -1.612126 -0.309431 -1.069648 -0.343607 -0.547509 0.157207 -1.867004 0.402391 2.054780 1.474136 0.394635 -1.897957 -0.981354 2.077174 0.331681 -0.609752 1.359164 -1.356303 0.644287 0.737780 0.514092 -0.418326 2.076119 -0.117736 2.116337 1.982242 0.291607 0.084198 -0.977025 0.744638 -1.952251 -0.103875 0.344664 -0.119267 0.737732 0.251361 1.370852 2.030005 -0.683551 0.608701 -2.397539 -0.164178 0.219197 1.444345 -1.477580 0.044446 1.221203 0.785685 1.561985 -1.750277 -1.066607 0.285926 -0.380016 -0.052866 -0.336209 0.118598 -1.107431 -0.645967 0.376591 0.977175 -0.180299 -0.320395 -0.253340 -0.665700 -0.225680 -0.245037 0.108184 0.316949 -2.406887 1.531577 -1.895894 -1.252442 0.187868 0.847721 0.341704 0.667391 -0.352346 -0.848785 1.027779 1.195543 0.646489 1.895158 -1.292528 -1.279885 -1.543382 1.233950 -0.814016 -0.158979 -0.173136 0.539673 0.354645 1.940349 1.578367 0.560724 -0.297575 1.078914 0.303239 -0.070708 0.286210 -2.123554 1.254307 1.026851 -1.274151 0.271617 0.379518 0.877751 0.136922 0.636745 1.643186 -0.793454 -2.402065 0.099368 -1.364713 1.529051 1.521477 1.247063 -0.337961 -0.397422 -1.052890 0.684107 -2.049173 -0.647657 0.400715 2.936890 0.361088 -1.025973 -1.138389 -1.218993 0.230759 0.537074 0.175904 0.217949 1.115056 -1.595813 2.386685 -0.568943 0.579396 -0.002052 -2.013468 -0.859431 -1.011851 -0.787820 -2.745335 0.409269 1.666205 1.010363 0.772157 0.657738
上 -0.215210 -3.693989 0.271330 0.700256 0.014285 1.248817 -0.542112 -0.817405 0.872703 0.944043 -0.315147 1.242698 2.015498 -0.643229 1.124612 -1.826059 1.196173 0.104258 0.960567 -0.597415 1.623870 -0.006407 -0.139069 1.200093 -1.393188 -0.861591 1.110308 0.842784 0.751138 1.370467 -1.857604 -0.805625 0.023083 -0.582990 1.076821 0.123469 -0.033559 0.702195 1.938174 0.577912 -0.047837 -0.284180 0.115873 -1.070835 -0.530428 0.289745 -0.435346 0.160100 0.573218 0.531368 -1.194165 -0.567192 -1.636769 0.591852 0.819675 -0.944564 -1.203041 -1.804793 0.532585 -0.462998 -1.124917 0.289525 -1.459239 0.356186 -0.198106 0.641715 -0.754972 -0.156016 -1.211755 -1.037157 -1.967650 1.025079 -1.158824 -0.274491 0.647491 0.049655 -0.503898 -1.407683 0.258967 -0.263138 1.192204 -0.435628 1.302475 -0.819403 0.099135 -0.132757 -1.146611 0.362003 -0.118336 0.387202 0.823440 0.041394 1.238274 -0.125277 0.165435 0.498562 1.079694 0.347373 -0.516792 0.024361 -1.075884 -0.142171 0.336241 0.071070 -0.285725 -0.214999 -0.210595 -0.330737 0.679701 2.199372 -0.030561 -0.456308 -0.019595 -0.245545 0.047796 0.011950 0.404711 -0.003535 0.536248 -1.671155 -0.509351 -1.193966 -1.377130 1.730102 0.066031 0.433228 -1.681264 -0.239592 1.540530 -1.454258 -1.067022 0.426640 0.200713 -1.286547 1.148870 -1.858859 -0.846805 -0.795718 -0.008796 0.582439 1.306079 -0.146539 -0.562300 -1.450185 -1.354941 0.761932 0.199579 0.123947 -1.980614 1.307088 1.066757 -1.305004 -0.502912 0.553898 0.187252 -1.064152 -0.070726 -0.231491 -0.149164 0.085618 0.350187 0.196974 -0.334006 1.230982 -0.977762 0.913728 -0.165154 0.788363 -1.427250 -0.333381 -0.954772 0.443436 0.202301 -1.701395 0.808880 -0.480506 1.101083 1.189491 -1.723874 -1.039151 0.395372 0.801174 -0.176588 1.822605 -0.214083 0.944545 0.623978 -1.499730 1.465846 0.056220 -1.495042 -0.784566 0.858821 -0.165105 0.139590 0.773223 -0.572715 0.492452 1.571514 -0.099918
》 1.531324 2.191770 0.116266 2.301000 0.854236 -1.775787 0.126896 0.204383 -1.036250 -0.788335 -0.052750 0.217618 -1.656502 -0.045925 1.078018 -2.427459 2.222150 -0.714966 -1.846858 -1.047139 -0.848053 0.994043 -1.237391 -0.188232 -0.021091 0.729788 -0.133555 -0.734974 1.335588 0.258345 0.841393 -2.167348 1.581002 -0.260529 1.474759 -2.638601 -0.885479 0.385692 2.287206 -1.848552 0.768864 -2.045616 0.492528 -0.113236 -1.666273 0.317234 0.269598 -0.829703 1.878423 0.758415 -0.379732 0.746277 -0.306141 -0.058037 -0.416630 0.550495 -0.091697 0.354644 0.017459 0.445573 0.504297 0.799315 -0.845777 1.790170 1.358750 1.085723 0.090130 -1.722799 -0.323686 -0.545400 -1.368952 1.472721 -1.004792 -1.309576 -3.125793 0.644844 -0.619387 1.219613 1.097559 -0.450370 0.031098 -0.701525 -0.128293 2.657628 -0.784704 0.865903 1.869606 1.155939 -1.653226 -0.788307 0.249977 0.265910 1.023380 -1.766889 0.997356 1.688686 -3.508453 -1.279984 -0.629972 -2.107371 -0.914465 1.560865 -0.283447 1.191993 -0.622480 0.164918 1.371507 -0.496926 2.515527 -0.984479 -1.883990 1.817832 0.802644 1.175186 1.077663 1.835097 1.378707 0.187072 0.148200 2.718502 1.453651 0.513635 2.732088 -1.487244 -0.287963 1.413682 0.414694 -1.942791 -0.512166 -0.545476 -3.037598 0.384252 0.802793 0.786852 -0.410053 -0.096612 0.960688 2.188004 -0.257956 0.365608 1.072309 2.249841 0.536571 -3.901137 -2.127327 1.306888 -0.128397 -1.799730 -1.375393 0.382220 0.146885 1.336755 0.378768 -0.243804 -0.640523 0.486063 0.643735 -0.147855 -1.564212 0.868780 -0.222974 -1.049064 0.557116 -0.200330 -1.008624 1.908126 1.970235 1.032871 0.228075 1.995890 3.073524 2.535836 3.567933 -0.373040 -0.030047 -0.169196 -1.696994 -2.351586 2.661530 0.790596 0.908759 -2.291006 3.083421 -1.242385 -1.440431 -1.816198 2.253192 0.742484 -0.536251 -1.823374 0.347116 0.167861 -0.260699 -0.579978 -1.556196 0.401584 0.810404 -1.318464 2.496405 -0.139679
《 1.471877 1.719687 0.072198 3.295650 0.351323 0.588921 0.236111 -1.648969 -1.305280 -0.677542 0.647672 1.266673 0.651536 -2.083831 1.358993 -1.004448 0.806208 -0.832677 -0.104453 -0.741201 -1.575749 0.832603 -2.113983 -1.707891 -1.720055 1.193441 -0.349215 1.527603 0.175255 0.840091 0.879655 -0.677361 0.965529 -0.334322 0.095608 -2.004963 0.139838 0.389897 2.310303 -0.768016 0.433250 -0.667359 0.458477 -0.556467 -0.968201 0.983651 1.187220 -0.065282 0.931475 -0.933242 0.995348 1.283271 -0.508463 0.688490 0.388741 0.403766 0.214725 0.882605 0.227376 0.825642 0.255031 1.029866 -0.708232 1.588221 0.167310 0.737709 0.039051 -0.722059 1.306409 -0.314230 -2.281272 1.762899 -0.692152 -0.457441 -2.764011 2.425259 1.929320 1.954437 1.751805 0.289341 -2.047978 -0.498860 2.044843 0.743447 -0.884383 2.015406 1.485019 -0.245740 -0.104722 0.807658 0.110400 -0.306561 1.616496 -1.979443 -0.189862 4.685735 -1.218671 -1.312603 -1.156243 -1.567890 -1.574799 0.305887 -1.424791 1.211076 0.221021 0.743145 1.804293 -1.677250 -0.363539 -1.172031 -1.991785 2.338928 3.163945 1.745204 -0.135115 1.550136 1.874611 -2.153883 -3.096038 3.017451 0.795330 0.618525 2.603764 -1.577107 0.707705 2.288882 2.184686 -2.396849 -0.079123 -0.937924 -2.322226 -2.164195 0.600141 0.521054 -1.027973 -2.330370 0.808173 -0.586838 0.359225 0.039092 0.363465 2.145323 0.701514 -2.486292 -1.360422 2.003546 0.083810 -1.368301 -0.521066 -0.139049 -1.177795 2.468710 0.981748 0.300980 -0.238592 -0.194832 -1.751518 -0.461458 -0.455291 -0.209608 0.863519 -0.771818 0.306849 -0.418321 -0.018416 2.170090 1.594093 0.652371 0.383978 1.814708 3.033680 3.255535 1.755570 0.179326 0.068908 -0.151331 -0.851329 -1.859429 1.317162 2.041448 0.137770 -2.657553 1.404864 -0.151543 -1.203200 -0.845684 1.517978 0.072621 0.252160 -0.691685 0.593560 0.271441 -0.675031 0.322078 0.068327 1.053357 -0.174907 -0.767465 0.467404 -0.183380
都 -0.943811 -1.236567 -1.200072 -0.083616 0.493577 -1.408481 -1.986600 -0.005767 1.249837 1.113313 -0.952316 0.053926 0.058196 1.124536 -0.473193 0.446199 -1.643167 2.062698 1.925611 0.032453 1.051558 0.625365 -1.171044 1.295265 0.242690 0.310675 -0.994743 0.019959 0.006561 -0.162077 -1.000239 0.188982 0.359977 1.435615 -0.555010 1.612916 -0.938743 -0.929385 -0.537433 -0.545150 1.266106 -0.969944 -0.692857 -1.960805 -0.745321 -1.805776 -1.798865 0.935212 -2.954010 0.737518 -1.844425 -1.875542 -1.028988 0.790080 0.038017 -0.470208 1.185805 0.076122 -0.447651 1.521262 -0.810522 -0.824085 -0.791283 0.682414 -1.375002 -0.248359 0.597214 0.864981 -1.783954 -0.502694 -0.522172 0.645888 -0.855350 0.370971 -0.136212 1.183863 -0.921505 0.224982 -1.953978 1.025449 -2.972719 1.194786 0.161482 -0.525528 -0.110195 -0.794943 -0.253662 0.681022 -0.159150 -1.496323 0.698631 -0.569180 2.626206 2.386261 0.824794 0.216400 1.030309 1.576707 0.797682 -0.212202 0.274954 0.067568 0.329524 -1.047859 -0.714190 0.240303 -0.950077 2.044192 -1.831229 0.376135 -0.131055 -2.422037 -1.089100 -1.232021 0.155084 -0.117838 0.170794 0.477278 1.300740 -1.138245 -2.209868 -0.757984 -0.855629 1.277762 -0.624996 -0.284815 0.243366 -1.139628 0.861042 1.053287 0.266097 -0.280722 -0.344283 0.168778 2.738864 0.431116 0.002918 0.096796 0.139765 0.089910 -0.415279 -0.651611 -0.451807 0.138629 0.404697 0.718768 1.768386 1.229424 0.494135 1.008358 -0.685606 0.216002 -1.035541 -0.241883 -0.801376 -0.676841 -1.479118 1.489233 -0.456996 -0.964302 0.079686 1.685365 0.205790 0.905221 -0.058959 -0.497750 -1.112383 0.408882 0.973699 -0.405215 -0.180071 -0.252181 -1.554990 -0.432942 -0.360046 0.025760 -1.157500 1.913261 0.115640 -1.302165 0.446488 2.387277 -0.397084 0.035417 -1.794506 0.835646 0.501835 2.034333 0.467105 -0.622317 -0.504441 -2.111804 -0.211550 0.037033 0.829568 0.585967 0.882231 0.158331 0.858594 0.494007
后 -0.367815 0.804706 0.113235 -0.706666 -0.737023 0.640991 -0.649420 -1.079577 -0.143721 -1.763194 -2.153953 -0.738668 -0.880826 1.200088 0.053870 -2.125842 -1.296991 0.294003 0.085797 -0.895807 0.868160 -0.552627 1.689930 0.626085 1.347676 -1.138850 -0.245488 0.140933 1.446943 -0.648994 -0.704338 -1.803389 1.324767 1.501438 -1.749481 -0.939642 0.469707 -0.459074 0.837819 0.305097 -1.061531 -0.859398 -0.428182 -1.889898 -0.460558 -1.069310 -2.276973 0.002102 -0.471495 -0.832133 -0.064240 0.636229 -1.123309 0.465708 2.441440 -0.762975 0.124554 -0.145667 0.458591 -0.789746 -0.437585 -0.105201 1.258574 -1.625599 0.504435 1.089377 1.223193 0.513960 1.642453 -0.738325 -1.758883 0.681004 1.684995 -0.045912 0.506919 -1.690902 2.030337 0.679443 -0.896310 0.072375 1.928133 -0.920742 -0.765153 0.514308 0.589665 2.265102 -0.661884 2.626158 -0.606604 1.312051 0.744693 -0.869446 1.067710 -1.436418 -0.363315 2.175114 0.634025 -0.257662 -0.110368 0.130960 0.810105 0.231985 -1.071658 -0.834175 0.934520 0.926361 0.395572 -1.451089 -0.530332 0.704373 -0.067142 0.494758 -0.068801 -1.058814 0.690242 0.998607 -0.605601 -0.200823 -0.800865 -0.096108 -0.801209 0.974774 -1.441989 -1.632519 -0.714786 -0.868140 0.075777 2.470531 -0.357750 -0.698509 0.401536 0.620711 2.394552 -0.219532 -0.246649 -0.034189 -0.634513 1.096622 -0.600398 -0.463626 0.987423 2.213947 1.028138 0.718879 -0.053481 -0.505149 -1.050802 -0.020099 -0.176441 0.527308 -1.057443 -1.502397 -0.091305 0.645047 0.751110 1.268198 2.021199 -0.347652 0.171478 0.990554 0.874314 -0.011765 0.439956 1.052999 -1.109475 1.443689 -0.102016 1.717441 -0.183822 -0.744378 -2.239132 0.053596 -0.529548 -0.296042 1.053312 1.086556 1.967736 0.149115 0.803973 0.864002 0.421000 -0.091776 -1.872301 -1.749383 0.887904 -0.769400 0.017439 -0.736473 -0.509242 0.133129 -0.376314 -0.024954 0.421722 -2.555344 1.521079 0.117016 -0.103033 0.168465 -1.487451 0.067164
防控 0.324067 0.790323 1.762171 -0.543620 1.284359 -2.044618 0.915681 0.880384 -1.049771 -0.274325 -2.746053 -0.796758 2.406093 -1.236637 -2.284854 0.291752 1.289452 0.828742 -1.534106 0.725121 0.536262 -0.420034 -1.275799 -0.173126 0.997713 0.272242 -3.505183 1.927204 -0.154354 -0.532836 0.122566 -1.541100 -0.344474 -0.086317 0.775201 -1.863983 1.555572 1.020795 1.406097 1.948807 -0.291631 0.332080 -1.129720 -0.896816 0.221903 0.662822 -1.190363 -3.094452 0.311234 0.947652 2.570764 -1.113296 1.179369 -2.178780 -0.018022 1.719695 -0.698585 0.318964 -4.214175 0.863911 -1.448503 0.528816 -0.607412 2.422322 0.588147 -1.545067 -1.096794 0.974087 -0.474815 0.456783 -0.444658 -1.136439 1.500403 -0.115553 0.750128 1.141156 0.432734 1.119213 0.903098 1.232861 0.007535 0.740195 0.831230 1.032859 0.455755 -1.494694 -1.350790 -1.856114 -1.207514 -2.014634 1.174992 2.057353 -0.027809 1.342119 -0.154174 -2.075749 0.404781 2.471083 -1.783850 1.548544 0.045361 2.838894 2.796001 -1.830591 1.166894 2.303019 0.328416 -0.755151 -1.156726 -1.586968 0.834780 0.257867 2.383779 -0.399106 0.571767 -0.442258 -0.779941 0.743861 -0.239373 -0.629510 -0.406481 0.521872 0.231476 -1.877406 -1.145387 -0.382278 1.101757 -1.470327 0.352123 1.386854 0.230148 0.367427 -0.017920 -0.238046 0.727332 -0.522010 0.970827 -1.255814 2.340366 2.361865 1.106750 0.761450 1.294148 -0.522884 0.379371 -0.154750 -0.073853 -0.267611 3.519998 -0.571494 0.378532 -0.407132 -1.822644 -1.493108 -0.346279 0.177991 -2.436264 -0.900750 -3.674916 -1.047686 0.285872 0.045434 0.476450 -2.890257 1.249539 1.415446 1.079812 -1.073504 -0.682604 -0.670518 -0.972477 1.323534 0.889397 -1.512375 -0.598385 -1.999742 -0.119596 -1.918160 -1.760127 1.537631 1.126394 -1.299022 0.540325 -1.503251 -1.173066 1.024812 -1.726650 -3.591802 -2.238226 1.848657 1.385642 0.414219 -2.381474 -0.534982 1.047088 -0.647146 -0.373515 0.156909 -3.188912 -0.873894
原 -0.529000 1.386851 1.303226 0.672225 -1.974763 -0.165577 2.571049 -0.087521 -0.535229 0.850067 0.823926 0.656035 -0.860456 -2.939928 1.596424 -0.584569 -2.903590 -1.082914 0.266008 0.450234 -1.726620 0.103010 -0.167266 0.909078 -0.698576 0.927002 -0.291888 0.333217 1.461067 -2.357781 -0.679059 1.768979 2.918257 2.515556 -2.506475 -1.627300 1.253916 -0.236087 -0.811629 -2.115640 -0.390571 -1.554938 1.354111 1.115994 0.573797 0.992799 -0.861208 2.049772 -1.551886 -2.621125 1.542410 1.156111 0.767071 0.126971 0.007521 2.485078 1.937852 -0.147598 -0.071156 -1.897274 0.699666 0.683166 1.520946 -0.930396 -2.142637 -1.425802 -2.765853 0.850834 -1.236829 1.274262 2.401480 -1.070130 -0.837311 0.438900 2.263115 -1.200099 0.067650 -0.954757 1.509881 -0.736480 -0.104934 1.316493 -0.298331 1.229276 -0.216592 3.313142 0.536692 -3.249429 0.199085 0.655574 -0.876233 1.354067 -1.339393 1.466007 -1.430474 -0.914386 1.305933 -1.080038 -1.793172 -1.181962 2.614743 -2.169691 0.391519 -0.080862 3.115483 -0.029112 0.517641 1.903351 0.027390 -1.940306 0.586871 1.462621 1.000748 -1.464135 -0.416394 0.975181 -0.769967 0.591010 0.862320 -0.924003 -1.051881 0.596280 -2.168429 -1.380202 -1.137454 -0.538515 1.563655 2.246715 -0.173383 0.638968 0.023383 -3.093194 0.596231 -0.883940 -2.434267 2.649863 0.939067 1.039050 -1.031063 -2.660939 -2.745208 -0.526465 0.123379 -2.336350 -0.215525 1.109403 -0.956721 1.915809 -0.379968 -1.700954 1.680152 -0.549703 0.450303 -0.924497 0.673297 0.508783 -1.521969 0.562042 -1.911706 -0.021500 2.953419 -2.199000 1.156725 1.528011 -2.040746 1.973636 2.930417 -1.750568 -0.745974 1.330416 0.056237 1.055216 -0.603382 -2.345349 -0.419652 1.802060 -1.315617 0.630365 1.593754 -1.286583 -2.008893 0.082906 -1.103570 -0.667677 0.339947 -1.611681 1.108369 -2.628540 -1.257506 3.659161 -1.939063 -1.389444 -3.228017 -0.292308 -2.301719 0.458412 -1.680851 1.135430 0.463536 1.357996
到 0.711833 -0.874383 1.641407 -1.129221 0.992522 0.797121 -2.072783 -0.295939 0.542724 -0.460926 1.651309 -0.045387 -0.144216 -0.199003 -0.402334 0.177469 0.219406 0.059688 0.259631 -0.767517 -0.191166 -0.116652 1.276636 -0.196863 0.629383 -1.639397 -0.521715 -0.729516 1.489832 -0.896614 0.048221 -1.070044 0.335380 1.030353 -0.126358 0.936507 0.099534 -0.139714 0.585338 -1.699126 -0.317383 -0.511722 -1.722692 0.347753 0.070297 1.495210 -1.693893 -0.197457 -2.279906 0.392487 -0.957025 -1.829764 1.570967 1.752859 -1.130366 0.244102 -1.279453 -0.863794 -0.297831 1.513233 0.415753 -0.162795 -0.809429 -2.188850 -1.286510 0.588449 1.100869 1.090355 1.392863 0.917801 -1.650635 0.461026 0.161820 -0.752720 -0.600391 -0.049591 0.214206 1.369201 -1.470512 1.453091 1.229660 0.705928 -0.203231 -0.016824 1.222140 0.337962 2.307359 1.760236 -1.666051 0.155514 -0.075328 -0.587232 -0.421373 0.473130 0.413026 -1.128208 1.251587 0.305037 -0.416533 3.049842 -0.113285 0.461208 -0.610526 -1.890891 0.763457 1.731185 -0.200461 -1.359382 -2.160684 0.529089 1.600406 -0.073635 0.702007 0.389343 0.012654 2.389853 -0.017982 -0.824138 -0.194805 -1.352276 -0.697161 0.958461 -0.663932 0.701729 -2.017179 0.763368 -1.049109 0.083688 0.002545 0.394658 1.093195 0.006557 -1.108964 0.440356 0.988925 0.341338 0.115684 1.326797 0.237821 -1.190401 0.036013 0.594528 -0.313155 -1.523270 -0.786263 -0.586487 0.576143 1.220597 -0.235817 -0.314270 0.667419 0.109232 -0.119442 1.866025 -0.299940 -0.033702 0.711583 -0.223217 0.975667 0.358013 0.500579 -0.244984 -0.509719 -0.334434 0.408039 0.315077 -1.253067 1.519960 0.377755 0.275736 -0.294856 -0.516307 -2.126076 -0.109840 -0.473893 0.313066 0.591844 0.690781 -0.567983 1.213387 -0.590974 2.369700 1.286897 0.918941 0.339427 0.667512 0.682751 0.517798 -0.139145 -1.332183 0.654590 0.340009 0.856932 -2.090421 1.692145 1.215425 1.168636 0.375614 -0.960406 -1.461997
新 2.342889 0.302882 3.174333 -1.987840 -0.192397 0.910947 0.196153 2.373820 0.432772 0.261201 -0.138377 -3.352631 0.494416 -0.016066 -1.419159 -1.761258 0.698474 -0.374165 -1.329294 0.214794 0.827031 0.541020 0.710022 -0.220759 0.325478 1.342550 -0.140405 0.030857 -0.527603 1.195994 -0.379907 -0.977664 0.559603 -0.699603 0.560768 0.552915 1.049961 -0.033222 1.370905 1.644491 0.247159 0.417753 1.733141 -0.022263 -0.345095 -1.208299 -0.620305 -1.541276 -0.667607 -0.615502 -0.909224 -0.407301 1.580836 -0.935712 0.350795 0.742078 -1.213846 0.414744 0.432393 1.789620 -0.534997 0.941419 -0.135416 0.845214 -3.516960 0.798979 -1.434513 -0.020368 0.813272 -0.610307 -0.037950 -0.381766 0.779020 -0.818764 -0.336395 -1.510916 1.089173 -0.061114 -0.089361 -0.487774 1.039297 -0.410073 1.100887 0.559487 0.791280 -0.752302 -1.615839 -0.840838 -0.582462 -0.691654 -0.249804 0.667542 1.848538 2.151685 1.361952 0.187023 0.722171 1.385944 -0.426617 -2.814660 -0.871281 0.189874 -1.424679 -4.324432 0.705859 0.793315 2.085854 0.821021 0.957586 -0.574109 1.239484 1.808167 2.461492 -1.743402 -0.683886 2.219048 0.047715 0.278065 -1.310600 1.080433 -0.155807 0.968980 -2.411055 -0.699929 -0.779661 -0.276314 1.782737 0.329119 -0.187409 0.266997 -0.896169 -0.898779 -1.832470 0.240041 -0.353671 -1.274651 0.556851 0.654184 -0.354068 0.481378 0.583726 0.116823 -1.325437 1.165061 -0.117597 0.942679 0.054524 -3.727829 2.501691 -1.664289 0.659777 -1.719441 -1.496211 -0.632385 -0.341823 0.469752 1.005768 -0.463078 -0.675328 0.209321 0.881257 0.136606 -1.532160 -0.556825 0.879871 -0.117983 0.715019 0.656846 0.315041 -3.102745 0.286211 2.621064 -0.033275 -1.577635 2.191286 1.374122 0.972379 -1.319905 1.087082 -0.306445 -0.654742 0.530234 -0.918378 0.697216 -1.988136 0.175228 -1.303008 -1.658347 -0.206921 0.452982 -0.128418 -0.112164 -1.441966 1.932803 0.608634 1.813980 -2.020544 0.688377 0.142592 1.416556
但 0.702543 -0.871764 0.183286 -0.455755 0.206117 -0.592866 -1.482821 1.119561 0.490639 -0.032379 -0.786002 -1.173778 1.045160 0.108735 -1.150118 0.171848 -0.213186 0.933783 1.924176 0.197975 1.209637 0.362249 -1.372929 0.482129 1.964590 -0.102470 -0.148000 -2.127790 2.056747 -0.294456 -2.281552 -0.978293 -0.345884 -1.277834 -0.143522 -0.942787 -1.729663 -0.179202 2.516125 0.224979 -1.057032 0.617461 -0.044928 -2.092028 0.447779 -0.788633 -2.448242 2.420498 -0.466191 1.448627 -0.396331 -0.761861 -1.536982 2.056969 -0.273737 -0.187883 -0.394298 -0.453193 2.130393 0.151085 -0.423265 -0.915944 0.362001 -1.105268 -0.742874 0.849571 -0.311342 0.900014 0.680076 -0.568583 0.676643 1.079513 -1.930946 0.511781 -2.433859 0.202695 0.718263 -0.361927 0.090205 -0.538671 1.008741 1.591893 0.420050 -0.347282 -2.387201 -1.094235 -0.777124 0.280976 1.551644 -0.048670 1.149364 -1.015914 1.736944 0.684668 1.451307 0.907212 0.102931 1.008629 -1.069970 0.212818 0.623803 -0.295189 0.849173 -0.492698 -0.877540 -0.644047 -1.213725 2.487393 -0.116557 2.038267 0.212687 -1.119355 -1.106711 0.406100 0.037040 -1.710089 0.056029 1.445025 1.018175 0.256210 -1.655686 -0.073375 -0.548729 1.373104 0.153663 -0.244495 1.038689 0.221884 -0.438893 -0.329176 0.492669 1.944462 0.101060 -0.507662 0.850924 1.014452 0.015929 0.340836 1.013954 0.507144 0.345067 0.138232 -0.210603 -0.027177 0.642875 -0.419936 2.432953 0.543649 1.405934 0.799956 -1.415479 -1.366876 0.536433 0.904802 0.069890 -0.587874 2.399428 -0.602495 -0.861002 -0.336290 -0.727867 0.030564 -1.322200 -0.245499 0.049755 -0.538009 -0.286607 1.214319 -0.375420 0.441106 -0.672014 -0.851679 -0.322424 0.531723 0.872013 -0.232752 -1.591331 0.648561 -0.031157 -2.290032 0.229292 1.546318 -1.495276 1.991156 0.255381 0.481833 0.624079 1.460172 0.588041 -0.654936 -1.208853 -1.559933 -0.366295 0.291807 0.688434 0.281287 0.348760 1.658786 -0.077528 -0.720699
国家 -0.326031 0.277166 2.258303 1.745119 0.272170 0.375504 0.847177 2.559949 -1.190724 1.287184 0.765110 0.724639 -0.654625 1.413835 1.128561 1.206080 -0.705806 0.112975 -0.396794 -0.510712 -1.159620 1.281797 -0.713646 1.159795 -1.333763 1.158922 -0.355922 0.060126 -2.769460 -0.829016 -0.256686 -2.257691 -0.741638 -1.159358 1.595947 0.382146 -1.600630 1.388237 1.300561 2.692197 1.168736 0.309164 1.266014 -0.630276 -1.933237 -0.804913 1.022557 0.161494 -0.203465 -1.716005 0.493719 0.996988 -0.596459 0.834825 0.468147 1.456019 1.098641 0.754893 -0.812295 -0.868847 -1.823380 1.261527 -0.551882 0.582438 -0.510253 -1.529383 -1.188158 -0.450517 -0.062036 1.541118 0.297404 1.265433 0.509400 2.577089 -0.120728 -0.256155 0.248580 0.818634 0.821118 -1.513186 1.526415 0.135700 -4.075476 -1.213999 0.106581 0.554623 0.068709 1.358162 -0.335796 -1.182767 -0.569907 0.244533 1.953479 -0.696269 -1.512848 -0.242901 0.706330 -0.556315 0.745803 -2.004255 1.285326 2.223228 1.890239 -0.000192 0.603279 0.934147 0.121592 1.966673 -0.209714 0.849624 0.600616 0.513445 0.829495 1.470692 -0.434915 -0.640401 0.786313 -2.580593 1.020511 -2.102434 -1.035505 -2.037576 -0.017460 1.019765 0.676980 1.880681 0.713723 -0.242374 0.290214 -0.177685 0.701219 -0.839141 1.457545 -1.299992 0.897258 -1.906996 0.140679 1.597161 -1.201506 -0.393593 -0.962529 1.308638 -0.110917 -0.329930 1.706259 1.439230 0.462055 1.076693 0.635032 0.089462 -0.372716 0.862102 0.203744 -0.561205 1.547580 0.743219 0.851657 2.266716 -0.475544 -0.346478 0.183771 0.195989 -1.248325 -1.732629 0.067998 0.566635 -0.263401 -1.141800 0.964039 -0.327487 -1.514255 0.906559 0.636211 -1.730045 0.349228 -0.333097 -2.073984 0.911409 -0.045597 0.235793 -1.467150 0.377895 0.146295 1.157694 0.604713 -0.126777 -0.024144 1.038098 -0.548739 0.026198 -1.301903 -0.471101 -1.366161 -1.322417 2.171302 0.056624 1.117625 -0.593558 1.238983 1.330853
从 -0.460898 -0.034833 -0.636423 -0.314713 0.180784 1.987312 -1.561322 0.225761 -0.777798 0.637907 -0.540895 -0.015170 0.073698 0.706766 0.011954 1.117522 -0.696932 1.344464 -0.469825 -0.982472 -0.975109 -1.304542 0.755078 0.129205 0.486333 -1.257796 -1.813281 1.418866 -1.705041 2.149434 0.377338 -1.507634 -0.460232 -1.260064 1.125104 1.634789 1.874648 0.422098 -0.538816 0.621248 1.355964 0.616488 -2.788466 -0.017974 0.270905 1.432382 -0.908582 -3.122942 0.041394 -0.629165 -0.602358 -2.943905 -0.080941 -0.080543 -0.120742 -0.911787 0.001766 -0.499423 0.817594 1.520780 -1.204450 -0.050040 -1.478345 -2.067830 0.479493 0.006629 -0.546236 -2.227856 0.357369 1.725135 -1.234933 1.116304 -1.514906 0.131465 0.019956 -0.637525 -0.584426 -0.544669 -0.571505 1.124645 1.262786 0.657998 -0.714390 1.300033 2.005399 0.862143 0.976564 0.820699 1.076661 1.118041 -0.540332 0.809904 1.511110 -0.380413 2.273875 -0.212235 0.670789 -1.384773 -0.733235 2.238630 0.173567 1.869804 -0.175490 -0.336608 0.231887 0.282319 -0.324068 -0.681167 -1.775897 -0.701012 -0.085276 1.291490 -1.712973 -0.203419 0.582775 0.672489 2.243869 0.142347 1.282244 1.399844 -2.774872 0.700265 -0.677967 -0.635903 -1.632378 1.219739 0.727137 0.752913 2.073307 0.925223 0.555454 -0.963914 -1.327479 -0.714429 -0.283066 0.604605 -0.076320 0.167441 0.607302 0.722011 -2.039350 0.716417 -0.412484 -1.034108 -0.607474 -0.242585 2.189400 0.546749 -1.101740 1.100114 -1.230583 -1.262761 -0.396842 1.502490 -2.435448 -0.816874 -0.319206 -0.006318 2.089475 -0.570929 -1.074480 -0.568935 -1.559587 -2.189015 -0.303043 -1.346497 -1.221750 0.545292 -0.138545 0.766021 -1.399725 -2.170034 0.320843 0.367422 -1.356107 2.449506 -0.450313 -1.197742 1.135661 -0.258839 1.918854 -0.132229 -0.368155 1.724135 0.662212 -1.033540 1.543810 -1.323271 -0.363278 -0.016959 0.675575 -1.186651 0.579784 -0.879479 -0.900786 -0.269956 -1.150539 0.238328 3.049466 -0.300989
一个 0.982047 -0.585219 -0.203488 -0.582495 0.511626 0.436911 -1.029987 0.325245 1.050100 0.799294 0.045079 0.126003 -0.053024 -0.314707 0.077785 -0.219773 -0.383749 -1.581805 0.467888 -0.783601 2.581907 2.085032 0.183805 0.485666 0.247217 0.388027 -0.283715 0.722636 1.344291 1.480482 -0.965892 -0.888237 -1.612956 1.204921 -1.201016 0.615310 0.679114 -0.569990 0.597298 0.338888 -0.294222 -0.064099 0.494875 0.470203 -0.163089 -1.987746 -1.682051 -0.522204 -1.412780 0.818771 -1.022941 -0.795038 -0.225969 1.363491 0.832770 -0.385688 -1.191358 1.274117 0.647438 -0.945968 -1.279474 -0.442510 -0.012886 0.436260 -1.593985 1.316019 -1.584185 1.574937 -0.962526 -1.038517 -0.500804 -1.461806 -1.518395 0.604587 0.074161 0.571158 -1.737558 0.629177 0.781199 0.354997 -1.890418 1.950920 0.782770 0.510528 1.404826 0.683353 0.717584 1.125189 0.487571 -0.864458 0.524324 -1.085528 2.430157 1.518123 2.235792 1.525813 -0.392788 1.105462 2.771364 -2.359224 1.005610 0.936269 0.400593 0.411060 -0.350258 0.878319 -0.660907 -0.621570 -0.826603 -0.197579 -0.450410 1.868710 -0.230823 -1.067480 -0.168867 0.084212 2.062482 1.404918 0.586183 -0.483268 -1.460979 -0.139168 -1.630262 2.421897 -2.526181 -1.046703 -0.283154 0.263248 1.134740 -0.758284 0.199053 1.848255 -0.880283 -0.132288 3.150560 -0.170578 -0.517341 0.127117 1.199788 1.103897 0.106425 -0.305417 -0.167167 1.390070 -0.161808 -1.312430 1.344936 0.834048 -0.229990 0.996374 1.109566 1.082890 -0.362634 -0.025338 -1.223464 0.530529 1.071392 1.829134 -0.626638 0.259627 0.460935 1.199391 -0.660273 -2.450202 0.802291 0.381649 -2.291407 0.390133 -1.047280 -0.496481 0.408113 -1.924214 0.765701 0.839689 0.822530 -0.829282 -0.383513 -0.157458 -0.780248 -1.585011 -0.423013 0.043099 2.259093 1.022374 -0.425367 0.706161 0.351293 1.504192 1.157850 -1.551780 1.252395 0.160341 0.117154 -1.227817 0.252221 -0.517560 -0.387258 -0.326851 0.182768 0.768431
我 0.726064 -1.429021 -0.239627 1.359131 -1.706042 -0.382763 0.205205 0.298962 0.023771 0.127080 0.100434 -0.434402 0.405463 0.860112 1.693643 0.036466 -1.960444 -1.337847 2.250025 -2.949273 0.490057 -0.119832 -1.437331 1.752415 -3.028358 0.575422 -0.096713 -0.500126 1.409668 0.179591 -1.388722 0.205708 1.539318 1.952043 -1.326993 2.341818 0.072922 -0.260566 0.379192 -0.145444 0.608079 0.289961 0.368031 -1.453160 0.058919 -2.209711 -1.241545 -0.875445 -0.580250 1.610382 -2.825697 0.480152 0.526784 0.599707 -0.253118 -0.002176 -0.495714 1.048915 3.109095 -1.077641 0.705553 1.019467 0.703249 0.528181 0.336442 -0.110552 0.056874 2.662766 0.228369 -0.493045 -2.185274 -0.746612 0.858970 0.065293 -0.565775 -0.123243 -1.059885 0.455547 -2.197405 -1.474296 -1.665191 1.822942 -0.244637 1.348823 1.222070 -0.393221 1.818168 0.993466 -0.043277 -2.148768 -0.396065 -0.494858 0.888877 0.740887 0.202107 2.600845 -0.764401 -1.312698 -0.416789 -0.004571 2.629892 0.621773 1.855414 0.145096 0.248060 -0.909397 0.665018 0.106023 0.771041 -0.206310 0.601428 -3.046451 -0.017708 0.184511 0.413641 0.602684 -1.714043 0.522009 -0.337270 0.445623 -1.769694 0.562378 -2.150263 1.699740 -0.059180 0.662979 -1.022259 -1.293832 2.152730 0.486361 1.801802 -0.132078 -0.899044 0.288364 2.671806 0.254307 0.693757 -1.274487 0.445809 -1.158595 0.360500 0.046410 -0.136017 0.584479 2.289411 -1.241490 1.983947 0.632185 1.345448 1.468099 0.927775 0.288464 -1.086426 2.516512 0.464741 -1.066969 -0.429784 0.221758 -1.027538 0.577621 -0.493462 -0.427850 -1.643297 -0.350430 0.354185 0.319442 -0.725177 -0.355071 -0.750232 1.878439 -0.275119 -1.927615 -2.309822 0.109064 0.175494 -0.560240 -1.218718 -1.806680 -1.723846 0.487629 -1.039520 1.573161 1.707222 -1.275202 -0.832210 1.645250 1.046758 0.418395 -0.150195 -1.316561 0.169751 -2.244057 0.902369 -1.472291 0.918174 -1.157594 -0.735087 -0.228531 -1.048760 -0.459036
